<?xml version="1.0"?>
<opencv_storage>
<opencv_ml_svm>
  <format>3</format>
  <svmType>C_SVC</svmType>
  <kernel>
    <type>RBF</type>
    <gamma>3.3000000000000002e-02</gamma></kernel>
  <C>2.5000000000000000e+00</C>
  <term_criteria><iterations>1000</iterations></term_criteria>
  <var_count>120</var_count>
  <class_count>10</class_count>
  <class_labels type_id="opencv-matrix">
    <rows>10</rows>
    <cols>1</cols>
    <dt>i</dt>
    <data>
      0 1 2 3 4 5 6 7 8 9</data></class_labels>
  <sv_total>3420</sv_total>
  <support_vectors>
    <_>
      0. 0. 0. 1. 1. 1. 1. 1. 0. 0. 1. 1. 1. 1. 0. 0. 0. 0. 0. 1. 0. 0.
      0. 0. 0. 0. 0. 0. 1. 0. 0. 0. 0. 0. 0. 0. 0. 1. 0. 0. 0. 0. 0. 0.
      1. 1. 0. 0. 0. 0. 1. 1. 1. 0. 0. 0. 1. 1. 1. 0. 0. 0. 0. 0.
      4.00000036e-01 8.00000012e-01 1. 8.00000012e-01 8.00000012e-01
      6.00000083e-01 2.66666710e-01 1.49011612e-08 1.49011612e-08
      1.49011612e-08 1.49011612e-08 6.66666776e-02 1.33333340e-01
      1.33333340e-01 1.33333340e-01 1.33333340e-01 6.66666776e-02
      1.33333340e-01 1.33333340e-01 2.66666710e-01 4.00000036e-01
      4.00000036e-01 4.00000036e-01 3.33333373e-01 4.66666698e-01
      5.33333361e-01 4.66666698e-01 4.00000036e-01 0. 6.66666701e-02
      1.33333355e-01 1.33333355e-01 2.00000018e-01 3.33333373e-01
      4.00000036e-01 4.66666698e-01 5.33333361e-01 6.00000024e-01
      7.33333409e-01 8.66666734e-01 1. 9.33333337e-01 7.33333409e-01
      8.00000072e-01 6.66666687e-01 9.33333337e-01 1. 8.66666734e-01
      5.33333361e-01 4.66666698e-01 1.33333355e-01 1.33333355e-01
      1.33333355e-01 1.33333355e-01 6.66666701e-02 0.</_>
    <_>
      0. 0. 0. 0. 0. 0. 0. 1. 1. 0. 0. 0. 0. 0. 1. 1. 1. 0. 0. 0. 0. 0.
      1. 0. 1. 0. 0. 0. 1. 1. 1. 0. 1. 1. 1. 1. 0. 0. 1. 0. 0. 0. 0. 0.
      0. 0. 1. 0. 0. 0. 0. 0. 0. 0. 1. 0. 0. 0. 0. 0. 0. 0. 1. 0. 0. 0.
      1.57894745e-01 1.57894745e-01 2.10526302e-01 2.10526302e-01
      2.63157904e-01 2.63157904e-01 2.63157904e-01 2.63157904e-01
      3.15789461e-01 3.15789461e-01 4.73684192e-01 7.89473653e-01
      9.99999940e-01 7.36842096e-01 4.73684192e-01 5.26315719e-02
      5.26315719e-02 5.26315719e-02 5.26315719e-02 5.26315719e-02
      5.26315719e-02 5.26315719e-02 1.05263159e-01 1.05263159e-01
      1.05263159e-01 1.05263159e-01 2.72727281e-01 5.45454562e-01
      6.36363626e-01 5.90909123e-01 1.36363640e-01 1.36363640e-01
      1.36363640e-01 1.36363640e-01 1.36363640e-01 1.36363640e-01
      9.09090936e-02 1.36363640e-01 1.36363640e-01 1.36363640e-01
      9.09090936e-02 9.09090936e-02 1.36363640e-01 1.36363640e-01
      9.09090936e-02 9.09090936e-02 6.81818187e-01 8.18181872e-01 1.
      7.27272749e-01 4.54545468e-01 4.09090936e-01 2.27272734e-01 0.</_>
    <_>
      0. 0. 0. 0. 0. 1. 1. 0. 0. 0. 0. 0. 1. 1. 0. 0. 0. 0. 0. 0. 1. 1.
      0. 0. 0. 0. 0. 1. 1. 0. 0. 0. 0. 0. 1. 1. 0. 0. 0. 0. 0. 0. 1. 1.
      0. 0. 0. 0. 0. 1. 1. 0. 0. 0. 0. 0. 0. 1. 1. 0. 0. 0. 0. 0. 0.
      5.00000000e-01 5.00000000e-01 1. 5.00000000e-01 5.00000000e-01
      5.00000000e-01 5.00000000e-01 5.00000000e-01 0. 5.00000000e-01
      5.00000000e-01 5.00000000e-01 0. 5.00000000e-01 1. 5.00000000e-01
      1. 1. 5.00000000e-01 5.00000000e-01 5.00000000e-01 5.00000000e-01
      5.00000000e-01 5.00000000e-01 5.00000000e-01 5.00000000e-01 0. 0.
      0. 0. 0. 0. 3.07692319e-01 5.38461566e-01 7.69230783e-01
      8.46153855e-01 1. 6.92307711e-01 6.92307711e-01 6.15384638e-01
      6.15384638e-01 6.15384638e-01 5.38461566e-01 5.38461566e-01
      6.15384638e-01 6.15384638e-01 6.15384638e-01 4.61538494e-01
      3.84615391e-01 3.07692319e-01 0. 0. 0. 0. 0.</_>
    <_>
      0. 0. 0. 0. 0. 0. 0. 0. 0. 0. 1. 1. 1. 1. 0. 0. 0. 0. 1. 1. 0. 1.
      0. 0. 0. 0. 0. 0. 0. 1. 0. 0. 0. 0. 1. 1. 1. 1. 0. 0. 0. 1. 0. 1.
      1. 1. 1. 1. 1. 1. 1. 1. 0. 0. 0. 0. 0. 0. 0. 0. 0. 0. 0. 0. 0. 0.
      1.57894731e-01 4.21052635e-01 5.26315808e-01 6.31578922e-01
      5.78947365e-01 5.26315808e-01 5.26315808e-01 4.73684222e-01
      2.10526317e-01 2.10526317e-01 2.10526317e-01 4.73684222e-01
      5.26315808e-01 6.84210539e-01 7.89473712e-01 6.31578922e-01
      7.89473712e-01 1. 7.89473712e-01 6.84210539e-01 6.84210539e-01
      6.31578922e-01 4.73684222e-01 2.10526317e-01 0. 0. 6.25000000e-02
      1.25000000e-01 2.50000000e-01 3.12500000e-01 3.75000000e-01
      3.75000000e-01 4.37500000e-01 6.87500000e-01 5.62500000e-01
      5.00000000e-01 5.62500000e-01 6.87500000e-01 6.87500000e-01
      6.87500000e-01 6.25000000e-01 5.00000000e-01 5.00000000e-01
      6.25000000e-01 9.37500000e-01 1. 8.12500000e-01 1.25000000e-01
      6.25000000e-02 6.25000000e-02 6.25000000e-02 6.25000000e-02
      6.25000000e-02 0.</_>
    <_>
      0. 0. 0. 0. 0. 0. 0. 0. 0. 0. 0. 0. 0. 1. 1. 1. 0. 0. 0. 0. 1. 1.
      1. 0. 0. 0. 1. 1. 0. 0. 0. 0. 0. 0. 1. 0. 0. 0. 0. 0. 1. 0. 1. 1.
      0. 0. 0. 0. 1. 1. 1. 0. 0. 0. 0. 0. 0. 0. 0. 0. 0. 0. 0. 0. 0. 0.
      0. 0. 4.16666687e-01 6.66666687e-01 8.33333373e-01 9.16666687e-01
      7.50000000e-01 5.00000000e-01 2.50000000e-01 4.16666687e-01
      2.50000000e-01 3.33333343e-01 2.50000000e-01 3.33333343e-01
      4.16666687e-01 3.33333343e-01 5.00000000e-01 6.66666687e-01
      5.83333373e-01 1. 8.33333373e-01 5.00000000e-01 0. 0. 0. 0. 0.
      1.25000000e-01 2.50000000e-01 3.75000000e-01 1.25000000e-01 0. 0.
      5.00000000e-01 6.25000000e-01 1. 1. 5.00000000e-01 3.75000000e-01
      1.25000000e-01 1.25000000e-01 0. 0. 0. 0. 0. 1.25000000e-01
      1.25000000e-01 0. 1.25000000e-01 1.25000000e-01 0. 0. 0.</_>
    <_>
      0. 0. 0. 0. 0. 0. 1. 0. 0. 0. 1. 1. 1. 1. 1. 0. 0. 0. 1. 1. 1. 1.
      0. 0. 0. 0. 1. 1. 1. 0. 0. 0. 0. 0. 1. 1. 0. 0. 0. 0. 0. 1. 1. 1.
      0. 0. 0. 0. 0. 1. 0. 1. 0. 0. 0. 0. 0. 1. 1. 0. 0. 0. 0. 0. 0. 0.
      1.81818187e-01 1. 1. 9.09090996e-01 6.36363626e-01 5.45454621e-01
      5.45454621e-01 5.45454621e-01 5.45454621e-01 5.45454621e-01
      4.54545468e-01 3.63636345e-01 2.72727281e-01 3.63636345e-01
      4.54545468e-01 5.45454621e-01 4.54545468e-01 4.54545468e-01
      3.63636345e-01 4.54545468e-01 4.54545468e-01 4.54545468e-01
      5.45454621e-01 4.54545468e-01 2.72727281e-01 9.09090936e-02 0. 0.
      0. 2.63157904e-01 4.21052635e-01 5.26315808e-01 5.78947365e-01
      5.26315808e-01 7.36842096e-01 1. 1. 1. 9.47368443e-01
      7.89473712e-01 7.89473712e-01 3.68421048e-01 4.21052635e-01
      4.21052635e-01 4.21052635e-01 3.68421048e-01 3.68421048e-01
      4.21052635e-01 3.15789461e-01 2.10526317e-01 0. 0. 0. 0.</_>
    <_>
      0. 0. 0. 0. 1. 1. 0. 0. 0. 0. 0. 0. 1. 1. 0. 0. 0. 0. 0. 1. 1. 1.
      0. 0. 0. 1. 1. 1. 1. 1. 0. 0. 0. 0. 0. 0. 1. 1. 0. 0. 0. 0. 0. 0.
      1. 1. 0. 0. 0. 0. 1. 1. 1. 1. 1. 0. 0. 1. 1. 0. 0. 0. 0. 0. 0.
      5.55555597e-02 1.66666687e-01 1.66666687e-01 1.66666687e-01
      1.11111112e-01 1.66666687e-01 2.22222239e-01 2.77777791e-01
      2.77777791e-01 3.33333343e-01 4.44444478e-01 6.11111104e-01
      5.00000000e-01 1.11111112e-01 1.11111112e-01 1.11111112e-01
      1.11111112e-01 1.11111112e-01 1.11111112e-01 5.55555597e-02
      1.11111112e-01 8.33333373e-01 9.44444478e-01 1. 2.77777791e-01
      1.66666687e-01 5.55555597e-02 0. 0. 0. 0. 2.39999995e-01
      2.39999995e-01 2.80000001e-01 2.39999995e-01 3.19999993e-01
      2.80000001e-01 2.80000001e-01 2.39999995e-01 3.19999993e-01
      3.19999993e-01 3.19999993e-01 8.39999974e-01 1. 1. 9.59999979e-01
      2.39999995e-01 1.19999997e-01 1.19999997e-01 1.19999997e-01
      1.59999996e-01 7.99999982e-02 0. 0. 0.</_>
    <_>
      0. 0. 1. 1. 1. 1. 0. 0. 0. 1. 1. 1. 1. 1. 1. 0. 0. 0. 0. 0. 0. 1.
      1. 0. 0. 0. 0. 1. 1. 1. 0. 0. 0. 0. 1. 1. 0. 0. 0. 0. 0. 1. 1. 0.
      0. 0. 0. 0. 1. 1. 1. 1. 1. 1. 1. 0. 0. 1. 1. 1. 1. 0. 0. 0. 0.
      3.00000012e-01 4.50000048e-01 7.00000048e-01 8.00000012e-01
      5.50000012e-01 3.50000024e-01 1.00000009e-01 1.49999991e-01
      1.49999991e-01 2.00000003e-01 2.00000003e-01 2.50000000e-01
      2.50000000e-01 2.50000000e-01 1.49999991e-01 1.00000009e-01
      4.99999970e-02 1.00000009e-01 1.00000009e-01 4.00000036e-01
      6.50000036e-01 1. 1. 8.00000012e-01 4.50000048e-01 3.50000024e-01
      0. 0. 1.17647059e-01 1.76470593e-01 3.52941185e-01 6.47058845e-01
      7.64705896e-01 8.82352948e-01 9.41176474e-01 9.41176474e-01
      9.41176474e-01 9.41176474e-01 8.23529422e-01 7.64705896e-01
      8.82352948e-01 8.82352948e-01 8.82352948e-01 1. 9.41176474e-01 1.
      8.82352948e-01 8.82352948e-01 7.64705896e-01 7.05882370e-01
      5.29411793e-01 2.35294119e-01 2.35294119e-01 5.88235296e-02 0.</_>
    <_>
      1. 1. 1. 1. 1. 1. 0. 0. 1. 1. 1. 1. 1. 1. 1. 0. 0. 0. 0. 0. 0. 1.
      1. 1. 0. 0. 0. 0. 0. 1. 1. 0. 0. 0. 0. 0. 1. 1. 0. 0. 0. 0. 0. 1.
      1. 0. 0. 0. 0. 0. 1. 1. 1. 1. 0. 0. 0. 0. 0. 1. 1. 1. 1. 1.
      2.50000000e-01 5.00000000e-01 8.00000072e-01 8.50000024e-01 1. 1.
      6.99999988e-01 4.00000036e-01 9.99999940e-02 5.00000119e-02
      5.00000119e-02 0. 5.00000119e-02 5.00000119e-02 5.00000119e-02
      1.50000006e-01 1.50000006e-01 1.50000006e-01 1.50000006e-01
      9.99999940e-02 9.99999940e-02 5.00000119e-02 2.00000018e-01
      5.00000000e-01 6.99999988e-01 6.99999988e-01 6.00000024e-01
      9.99999940e-02 0. 1.66666687e-01 2.22222239e-01 2.77777791e-01
      2.77777791e-01 2.22222239e-01 2.22222239e-01 2.22222239e-01
      3.88888896e-01 5.55555582e-01 6.66666687e-01 7.77777791e-01
      8.33333373e-01 8.33333373e-01 8.88888896e-01 9.44444478e-01
      8.88888896e-01 7.77777791e-01 8.33333373e-01 8.88888896e-01 1. 1.
      8.33333373e-01 6.11111104e-01 5.55555582e-01 2.77777791e-01
      5.55555597e-02 0.</_>
    <_>
      0. 0. 0. 0. 0. 0. 0. 0. 0. 0. 0. 0. 0. 1. 1. 1. 0. 0. 0. 1. 1. 0.
      1. 1. 0. 0. 0. 0. 0. 1. 1. 0. 0. 0. 0. 0. 1. 1. 0. 0. 0. 0. 0. 1.
      1. 0. 0. 0. 0. 0. 0. 1. 0. 0. 0. 0. 0. 0. 0. 0. 0. 0. 0. 0. 0. 0.
      0. 0. 5.71428597e-01 8.57142925e-01 1. 1. 8.57142925e-01
      6.42857194e-01 2.85714298e-01 3.57142866e-01 4.28571463e-01
      3.57142866e-01 2.85714298e-01 3.57142866e-01 2.85714298e-01
      2.85714298e-01 3.57142866e-01 3.57142866e-01 3.57142866e-01
      2.85714298e-01 2.14285731e-01 1.42857149e-01 0. 0. 0. 0. 0. 0. 0.
      0. 0. 0. 0. 0. 0. 0. 0. 7.77777791e-01 8.88888896e-01 1. 1. 1. 1.
      1. 8.88888896e-01 1. 7.77777791e-01 7.77777791e-01 1. 1.
      7.77777791e-01 6.66666687e-01 5.55555582e-01 3.33333343e-01</_>
    <_>
      0. 0. 0. 0. 0. 0. 0. 0. 1. 1. 1. 1. 1. 1. 0. 0. 0. 0. 0. 0. 1. 1.
      0. 0. 0. 0. 0. 1. 1. 1. 1. 0. 0. 0. 0. 0. 0. 0. 1. 1. 0. 0. 0. 0.
      1. 0. 0. 1. 0. 0. 0. 0. 1. 1. 1. 1. 0. 0. 0. 0. 0. 0. 0. 0. 0. 0.
      0. 5.50000012e-01 8.50000024e-01 1. 6.50000036e-01 4.00000006e-01
      2.50000000e-01 3.00000012e-01 3.00000012e-01 5.50000012e-01
      6.99999988e-01 7.50000000e-01 3.49999994e-01 3.00000012e-01
      2.50000000e-01 3.00000012e-01 3.00000012e-01 3.00000012e-01
      5.00000000e-01 6.99999988e-01 6.00000024e-01 5.00000000e-01
      2.50000000e-01 0. 0. 0. 0. 0. 6.25000000e-02 6.25000000e-02 0. 0.
      0. 6.25000000e-02 6.25000000e-02 0. 1.25000000e-01 1.87500000e-01
      2.50000000e-01 3.12500000e-01 5.62500000e-01 7.50000000e-01 1.
      8.75000000e-01 7.50000000e-01 5.62500000e-01 2.50000000e-01
      3.12500000e-01 2.50000000e-01 3.75000000e-01 3.75000000e-01
      4.37500000e-01 3.12500000e-01 1.25000000e-01</_>
    <_>
      0. 0. 0. 0. 1. 1. 1. 0. 0. 0. 0. 1. 0. 1. 1. 0. 0. 0. 0. 1. 1. 1.
      0. 0. 0. 0. 0. 0. 1. 1. 0. 0. 0. 0. 0. 1. 1. 0. 0. 0. 0. 0. 0. 1.
      0. 0. 0. 0. 0. 0. 1. 0. 0. 0. 0. 0. 0. 1. 0. 0. 0. 0. 0. 0.
      3.00000012e-01 6.99999988e-01 1. 8.00000012e-01 6.99999988e-01
      5.00000000e-01 5.00000000e-01 9.00000036e-01 8.00000012e-01
      6.00000024e-01 1.99999988e-01 9.99999940e-02 9.99999940e-02
      9.99999940e-02 9.99999940e-02 9.99999940e-02 9.99999940e-02
      9.99999940e-02 1.99999988e-01 9.99999940e-02 9.99999940e-02
      9.99999940e-02 9.99999940e-02 9.99999940e-02 9.99999940e-02
      9.99999940e-02 0. 0. 0. 0. 0. 7.69230798e-02 2.30769247e-01
      2.30769247e-01 3.07692319e-01 3.07692319e-01 3.07692319e-01
      3.84615391e-01 6.92307711e-01 8.46153855e-01 1. 8.46153855e-01
      9.23076987e-01 7.69230783e-01 9.23076987e-01 8.46153855e-01
      8.46153855e-01 9.23076987e-01 8.46153855e-01 6.92307711e-01
      4.61538494e-01 3.84615391e-01 2.30769247e-01 0. 0. 0.</_>
    <_>
      0. 0. 0. 0. 0. 0. 0. 0. 0. 0. 0. 0. 1. 1. 1. 1. 0. 0. 0. 1. 1. 0.
      0. 0. 0. 0. 0. 1. 1. 0. 0. 0. 0. 0. 1. 0. 1. 0. 0. 0. 0. 0. 0. 0.
      1. 0. 0. 0. 1. 1. 1. 1. 0. 0. 0. 0. 0. 0. 0. 0. 0. 0. 0. 0. 0. 0.
      0. 4.54545468e-01 8.18181872e-01 1. 9.09090936e-01 7.27272749e-01
      4.54545468e-01 3.63636374e-01 2.72727281e-01 3.63636374e-01
      6.36363626e-01 8.18181872e-01 6.36363626e-01 5.45454562e-01
      5.45454562e-01 2.72727281e-01 2.72727281e-01 2.72727281e-01
      4.54545468e-01 7.27272749e-01 9.09090936e-01 1. 6.36363626e-01 0.
      0. 0. 2.00000003e-01 2.00000003e-01 2.00000003e-01 1.00000009e-01
      0. 0. 3.00000012e-01 4.00000036e-01 4.00000036e-01 5.00000000e-01
      5.00000000e-01 6.00000024e-01 6.00000024e-01 8.00000012e-01 1.
      9.00000036e-01 8.00000012e-01 1.00000009e-01 1.00000009e-01
      2.00000003e-01 2.00000003e-01 1.00000009e-01 1.00000009e-01
      2.00000003e-01 1.00000009e-01 1.00000009e-01 1.00000009e-01 0.</_>
    <_>
      0. 0. 0. 0. 0. 0. 1. 0. 0. 0. 0. 1. 1. 1. 1. 0. 0. 0. 1. 0. 1. 1.
      0. 0. 0. 0. 1. 1. 1. 0. 0. 0. 0. 0. 0. 1. 1. 0. 0. 0. 0. 0. 1. 0.
      1. 0. 0. 0. 0. 1. 1. 0. 1. 0. 0. 0. 0. 1. 1. 1. 0. 0. 0. 0. 0.
      1.11111104e-01 1.11111104e-01 8.88888836e-01 8.88888836e-01 1. 1.
      8.88888836e-01 6.66666627e-01 5.55555582e-01 8.88888836e-01
      8.88888836e-01 6.66666627e-01 4.44444448e-01 3.33333343e-01
      4.44444448e-01 5.55555582e-01 6.66666627e-01 5.55555582e-01
      5.55555582e-01 5.55555582e-01 6.66666627e-01 4.44444448e-01
      6.66666627e-01 7.77777791e-01 1. 6.66666627e-01 4.44444448e-01 0.
      0. 0. 0. 1.36363640e-01 2.72727281e-01 3.63636374e-01
      6.36363626e-01 7.72727311e-01 7.72727311e-01 8.18181872e-01
      7.27272749e-01 7.27272749e-01 6.36363626e-01 8.18181872e-01
      9.54545498e-01 1. 6.36363626e-01 2.27272734e-01 2.72727281e-01
      4.09090936e-01 3.63636374e-01 2.27272734e-01 1.36363640e-01 0. 0.
      0. 0.</_>
    <_>
      0. 0. 0. 0. 1. 1. 0. 0. 0. 0. 1. 1. 0. 1. 0. 0. 0. 0. 0. 0. 0. 1.
      0. 0. 0. 0. 0. 0. 0. 1. 0. 0. 0. 0. 0. 0. 1. 0. 0. 0. 0. 0. 0. 0.
      1. 0. 0. 0. 0. 0. 0. 0. 1. 0. 0. 0. 0. 0. 0. 0. 1. 0. 0. 0.
      2.22222224e-01 4.44444478e-01 7.77777791e-01 1. 8.88888955e-01
      7.77777791e-01 3.33333373e-01 1.11111119e-01 1.11111119e-01
      1.11111119e-01 1.11111119e-01 1.11111119e-01 1.11111119e-01
      1.11111119e-01 1.11111119e-01 1.11111119e-01 1.11111119e-01
      1.11111119e-01 1.11111119e-01 1.11111119e-01 0. 1.11111119e-01
      1.11111119e-01 1.11111119e-01 1.11111119e-01 2.22222224e-01
      1.11111119e-01 1.11111119e-01 0. 0. 0. 0. 0. 0. 5.88235296e-02
      1.76470593e-01 1.76470593e-01 1.76470593e-01 1.76470593e-01
      1.76470593e-01 1.76470593e-01 3.52941185e-01 5.29411793e-01
      9.41176474e-01 1. 1. 8.82352948e-01 7.05882370e-01 3.52941185e-01
      0. 0. 0. 0. 0. 0. 0.</_>
    <_>
      0. 0. 1. 1. 0. 0. 0. 0. 0. 0. 1. 1. 1. 0. 0. 0. 0. 0. 1. 1. 1. 0.
      0. 0. 0. 0. 0. 0. 1. 0. 0. 0. 0. 0. 0. 0. 0. 1. 0. 0. 0. 0. 0. 0.
      0. 1. 0. 0. 0. 0. 0. 1. 0. 1. 0. 0. 0. 0. 0. 1. 1. 1. 0. 0.
      2.85714298e-01 4.28571433e-01 7.14285731e-01 5.71428657e-01
      5.71428657e-01 5.71428657e-01 5.71428657e-01 5.71428657e-01
      7.14285731e-01 1.00000012e+00 8.57142925e-01 4.28571433e-01
      1.42857164e-01 1.42857164e-01 1.42857164e-01 0. 1.42857164e-01
      1.42857164e-01 1.42857164e-01 1.42857164e-01 1.42857164e-01
      1.42857164e-01 4.28571433e-01 8.57142925e-01 1.00000012e+00
      8.57142925e-01 5.71428657e-01 2.85714298e-01 0. 0. 0. 0. 0. 0. 0.
      0. 4.70588237e-01 7.05882370e-01 8.82352948e-01 5.29411793e-01
      4.70588237e-01 8.82352948e-01 7.05882370e-01 7.64705896e-01
      5.88235319e-01 1. 8.82352948e-01 5.88235319e-01 0. 0. 0. 0. 0. 0.
      0. 0.</_>
    <_>
      0. 0. 0. 0. 1. 0. 0. 0. 0. 0. 1. 1. 1. 0. 0. 0. 0. 1. 1. 1. 1. 0.
      0. 0. 0. 0. 1. 1. 1. 1. 0. 0. 0. 0. 1. 1. 0. 0. 0. 0. 0. 0. 1. 0.
      0. 0. 0. 0. 0. 1. 0. 0. 0. 0. 0. 0. 0. 1. 0. 0. 0. 0. 0. 0.
      6.66666776e-02 1.33333340e-01 6.66666776e-02 2.66666710e-01
      2.66666710e-01 2.66666710e-01 3.33333373e-01 3.33333373e-01
      4.00000036e-01 6.66666746e-01 1.00000012e+00 9.33333397e-01
      5.33333361e-01 6.66666776e-02 6.66666776e-02 6.66666776e-02
      6.66666776e-02 6.66666776e-02 6.66666776e-02 6.66666776e-02
      6.66666776e-02 6.66666776e-02 0. 6.66666776e-02 0. 0. 0. 0. 0. 0.
      0. 7.14285746e-02 2.14285731e-01 4.28571463e-01 5.71428597e-01
      7.85714328e-01 8.57142925e-01 1. 1. 7.85714328e-01 6.42857194e-01
      5.00000000e-01 8.57142925e-01 7.14285731e-01 5.00000000e-01
      3.57142866e-01 2.85714298e-01 2.14285731e-01 2.14285731e-01
      2.14285731e-01 1.42857149e-01 0. 0. 0. 0. 0.</_>
    <_>
      0. 1. 1. 1. 0. 0. 1. 0. 1. 1. 0. 0. 0. 1. 1. 0. 0. 1. 1. 1. 1. 1.
      0. 0. 0. 0. 0. 0. 1. 0. 0. 0. 0. 0. 0. 0. 1. 0. 0. 0. 0. 0. 0. 1.
      0. 0. 0. 0. 0. 0. 0. 1. 0. 0. 0. 0. 0. 0. 0. 1. 0. 0. 0. 0.
      2.50000000e-01 6.25000000e-01 7.50000000e-01 4.37500000e-01
      3.75000000e-01 4.37500000e-01 3.75000000e-01 5.00000000e-01 1.
      8.75000000e-01 8.12500000e-01 2.50000000e-01 6.25000000e-02 0.
      6.25000000e-02 6.25000000e-02 6.25000000e-02 0. 0. 6.25000000e-02
      6.25000000e-02 0. 6.25000000e-02 0. 0. 6.25000000e-02
      6.25000000e-02 0. 0. 1.87500000e-01 3.12500000e-01 4.37500000e-01
      5.00000000e-01 4.37500000e-01 3.75000000e-01 3.75000000e-01
      4.37500000e-01 4.37500000e-01 6.25000000e-01 9.37500000e-01 1. 1.
      7.50000000e-01 6.87500000e-01 6.25000000e-01 5.62500000e-01
      5.00000000e-01 4.37500000e-01 3.75000000e-01 3.75000000e-01
      3.75000000e-01 3.75000000e-01 2.50000000e-01 1.25000000e-01 0. 0.</_>
    <_>
      0. 0. 0. 1. 1. 1. 1. 0. 0. 1. 1. 0. 1. 1. 0. 0. 0. 1. 1. 0. 1. 1.
      0. 0. 0. 0. 1. 1. 1. 0. 0. 0. 0. 0. 1. 1. 0. 0. 0. 0. 0. 1. 1. 0.
      0. 0. 0. 0. 0. 1. 0. 1. 0. 0. 0. 0. 0. 1. 1. 0. 0. 0. 0. 0.
      3.99999976e-01 8.99999976e-01 1. 1. 6.00000024e-01 3.99999976e-01
      3.00000012e-01 3.00000012e-01 5.00000000e-01 3.99999976e-01
      3.99999976e-01 5.00000000e-01 1.99999988e-01 9.99999642e-02 0.
      9.99999642e-02 1.99999988e-01 9.99999642e-02 9.99999642e-02
      9.99999642e-02 9.99999642e-02 9.99999642e-02 9.99999642e-02
      1.99999988e-01 3.00000012e-01 3.99999976e-01 3.00000012e-01 0. 0.
      0. 2.50000000e-01 3.49999994e-01 4.50000018e-01 6.99999988e-01
      6.99999988e-01 8.50000024e-01 8.00000012e-01 8.00000012e-01
      8.00000012e-01 6.50000036e-01 7.50000000e-01 1. 8.50000024e-01
      6.00000024e-01 6.50000036e-01 6.00000024e-01 5.50000012e-01
      4.00000006e-01 3.49999994e-01 2.50000000e-01 2.50000000e-01
      2.00000003e-01 1.50000006e-01 0. 0. 0.</_>
    <_>
      0. 0. 0. 0. 0. 0. 0. 0. 0. 1. 1. 0. 0. 0. 1. 0. 0. 1. 0. 0. 0. 0.
      1. 1. 1. 1. 0. 0. 0. 0. 1. 1. 1. 1. 0. 1. 1. 1. 1. 1. 1. 1. 1. 1.
      1. 1. 1. 1. 0. 0. 0. 0. 0. 0. 1. 0. 0. 0. 0. 0. 0. 0. 0. 0. 0. 0.
      3.70370373e-02 2.59259254e-01 2.96296299e-01 3.33333343e-01
      3.33333343e-01 3.70370388e-01 3.70370388e-01 3.70370388e-01
      4.07407403e-01 3.70370388e-01 3.33333343e-01 2.96296299e-01
      3.70370388e-01 4.81481493e-01 8.14814806e-01 1. 9.25925910e-01
      7.77777791e-01 2.59259254e-01 1.48148149e-01 1.48148149e-01
      1.11111112e-01 7.40740746e-02 0. 0. 0. 1.57894731e-01
      3.15789491e-01 4.21052635e-01 5.26315808e-01 4.21052635e-01
      4.73684192e-01 3.68421078e-01 3.68421078e-01 2.63157904e-01
      1.57894731e-01 0. 0. 5.26315868e-02 5.26315868e-02 5.26315868e-02
      5.26315868e-02 5.26315868e-02 5.26315868e-02 5.26315868e-02
      5.26315868e-02 1.57894731e-01 5.26315808e-01 7.36842096e-01 1.
      8.94736886e-01 7.36842096e-01 2.63157904e-01 0.</_>
    <_>
      0. 0. 0. 1. 0. 0. 0. 0. 0. 0. 1. 0. 0. 0. 1. 0. 0. 0. 1. 0. 0. 0.
      1. 0. 0. 1. 0. 0. 0. 1. 1. 0. 1. 1. 0. 0. 1. 1. 0. 0. 1. 1. 1. 1.
      1. 1. 0. 0. 0. 0. 0. 0. 1. 0. 0. 0. 0. 0. 0. 0. 1. 0. 0. 0. 0.
      2.35294133e-01 4.11764741e-01 4.11764741e-01 3.52941185e-01
      2.94117659e-01 2.35294133e-01 3.52941185e-01 2.94117659e-01
      3.52941185e-01 3.52941185e-01 3.52941185e-01 2.94117659e-01
      3.52941185e-01 3.52941185e-01 4.11764741e-01 6.47058845e-01
      7.64705896e-01 1. 8.23529422e-01 6.47058845e-01 1.76470608e-01
      5.88235334e-02 5.88235334e-02 1.17647059e-01 1.17647059e-01
      1.17647059e-01 5.88235334e-02 0. 1.53846160e-01 5.38461566e-01
      6.15384638e-01 6.92307711e-01 7.69230783e-01 7.69230783e-01
      6.92307711e-01 9.23076987e-01 9.23076987e-01 8.46153855e-01
      6.92307711e-01 6.15384638e-01 4.61538494e-01 4.61538494e-01
      9.23076987e-01 1. 1. 6.15384638e-01 6.15384638e-01 6.92307711e-01
      6.15384638e-01 7.69230783e-01 7.69230783e-01 5.38461566e-01
      2.30769247e-01 0. 0.</_>
    <_>
      0. 0. 1. 1. 1. 0. 0. 0. 0. 1. 1. 0. 1. 1. 1. 0. 1. 0. 0. 0. 0. 0.
      1. 1. 1. 0. 0. 0. 0. 0. 0. 1. 1. 0. 0. 0. 0. 0. 0. 1. 1. 0. 0. 0.
      0. 0. 0. 1. 0. 1. 0. 0. 0. 0. 0. 1. 0. 0. 1. 1. 1. 1. 1. 0.
      7.69230723e-02 3.07692319e-01 4.61538464e-01 3.84615391e-01
      5.38461566e-01 6.92307711e-01 5.38461566e-01 3.84615391e-01
      3.07692319e-01 2.30769247e-01 1.53846174e-01 1.53846174e-01
      1.53846174e-01 7.69230723e-02 7.69230723e-02 7.69230723e-02
      7.69230723e-02 0. 7.69230723e-02 2.30769247e-01 2.30769247e-01
      3.07692319e-01 2.30769247e-01 3.07692319e-01 5.38461566e-01
      1.00000012e+00 7.69230843e-01 3.07692319e-01 9.99999642e-02
      7.00000048e-01 1. 3.99999976e-01 3.99999976e-01 1.99999988e-01
      9.99999642e-02 0. 0. 0. 0. 0. 0. 0. 0. 3.00000012e-01
      3.00000012e-01 1.99999988e-01 0. 0. 0. 0. 9.99999642e-02
      9.99999642e-02 9.99999642e-02 3.99999976e-01 7.99999952e-01
      5.00000000e-01</_>
    <_>
      0. 0. 0. 1. 0. 0. 0. 0. 0. 0. 1. 1. 0. 0. 0. 0. 0. 0. 1. 1. 0. 0.
      0. 0. 0. 0. 0. 1. 0. 0. 0. 0. 0. 0. 0. 1. 0. 0. 0. 0. 0. 0. 0. 1.
      0. 0. 0. 0. 0. 0. 0. 1. 1. 1. 0. 0. 0. 0. 1. 1. 1. 0. 0. 0. 0.
      1.81818187e-01 3.63636374e-01 3.63636374e-01 4.54545438e-01
      5.45454562e-01 6.36363685e-01 6.36363685e-01 6.36363685e-01
      4.54545438e-01 1.81818187e-01 1.81818187e-01 1.81818187e-01
      1.81818187e-01 1.81818187e-01 1.81818187e-01 9.09090936e-02
      9.09090936e-02 9.09090936e-02 1.81818187e-01 4.54545438e-01
      6.36363685e-01 9.09090936e-01 1. 9.09090936e-01 8.18181813e-01
      6.36363685e-01 4.54545438e-01 0. 0. 0. 0. 0. 0. 1.42857149e-01
      1.78571433e-01 3.57142866e-01 3.57142866e-01 5.00000000e-01
      9.64285731e-01 1. 1. 7.85714328e-01 2.50000000e-01 1.78571433e-01
      1.42857149e-01 2.14285731e-01 1.78571433e-01 1.78571433e-01
      1.42857149e-01 0. 0. 0. 0. 0. 0.</_>
    <_>
      0. 0. 1. 1. 1. 0. 0. 0. 0. 0. 1. 1. 1. 0. 0. 0. 0. 0. 0. 1. 1. 0.
      0. 0. 0. 0. 1. 1. 1. 1. 0. 0. 0. 0. 0. 0. 0. 1. 0. 0. 0. 0. 0. 0.
      0. 1. 0. 0. 0. 0. 1. 0. 1. 1. 0. 0. 0. 0. 1. 1. 1. 0. 0. 0.
      2.22222239e-01 6.66666746e-01 7.77777791e-01 8.88888955e-01 1.
      1.11111134e-01 0. 1.11111134e-01 1.11111134e-01 3.33333343e-01
      6.66666746e-01 7.77777791e-01 6.66666746e-01 4.44444448e-01 0.
      1.11111134e-01 1.11111134e-01 1.11111134e-01 1.11111134e-01 0.
      1.11111134e-01 1.11111134e-01 2.22222239e-01 5.55555582e-01
      7.77777791e-01 6.66666746e-01 5.55555582e-01 3.33333343e-01 0. 0.
      0. 0. 0. 4.76190485e-02 1.42857149e-01 2.85714298e-01
      6.66666687e-01 7.14285731e-01 6.66666687e-01 6.19047642e-01
      6.19047642e-01 6.66666687e-01 8.09523821e-01 8.09523821e-01
      9.52380955e-01 1. 7.14285731e-01 5.71428597e-01 3.33333343e-01
      2.38095239e-01 0. 0. 0. 0. 0. 0.</_>
    <_>
      0. 0. 1. 1. 1. 0. 0. 0. 1. 1. 1. 1. 1. 1. 0. 0. 0. 0. 0. 0. 1. 1.
      0. 0. 0. 0. 0. 1. 1. 0. 0. 0. 0. 0. 1. 1. 0. 0. 0. 0. 0. 0. 1. 0.
      0. 0. 0. 0. 0. 0. 1. 1. 0. 0. 0. 1. 0. 0. 1. 1. 1. 1. 1. 0. 0.
      3.33333343e-01 5.71428597e-01 7.14285731e-01 8.09523821e-01
      6.19047642e-01 5.23809552e-01 4.76190478e-01 2.38095239e-01
      2.38095239e-01 2.38095239e-01 2.38095239e-01 2.85714298e-01
      2.85714298e-01 2.38095239e-01 2.38095239e-01 2.38095239e-01
      1.90476194e-01 1.90476194e-01 1.90476194e-01 1.90476194e-01
      1.90476194e-01 2.38095239e-01 7.14285731e-01 1. 7.61904776e-01
      5.71428597e-01 0. 6.66666776e-02 6.66666776e-02 1.33333340e-01
      1.33333340e-01 1.33333340e-01 1.33333340e-01 4.00000036e-01
      6.00000024e-01 7.33333409e-01 8.00000072e-01 8.66666675e-01
      8.00000072e-01 8.00000072e-01 8.66666675e-01 8.66666675e-01
      1.00000012e+00 9.33333397e-01 6.66666746e-01 4.66666698e-01
      2.66666710e-01 6.66666776e-02 6.66666776e-02 6.66666776e-02
      6.66666776e-02 0. 0. 0. 0.</_>
    <_>
      0. 0. 0. 0. 0. 1. 0. 0. 0. 0. 0. 0. 0. 1. 0. 0. 0. 0. 0. 0. 1. 1.
      0. 0. 0. 0. 0. 0. 1. 1. 0. 0. 0. 0. 0. 1. 1. 1. 0. 0. 0. 0. 0. 1.
      1. 0. 0. 0. 0. 0. 1. 1. 0. 0. 0. 0. 0. 0. 1. 1. 0. 0. 0. 0.
      2.00000018e-01 4.00000006e-01 6.00000024e-01 6.00000024e-01
      6.00000024e-01 6.00000024e-01 6.00000024e-01 6.00000024e-01
      8.00000072e-01 8.00000072e-01 8.00000072e-01 8.00000072e-01
      8.00000072e-01 1. 1. 8.00000072e-01 1. 8.00000072e-01
      8.00000072e-01 8.00000072e-01 8.00000072e-01 1. 8.00000072e-01
      8.00000072e-01 1. 1. 6.00000024e-01 0. 0. 0. 0. 0. 0. 0.
      5.00000007e-02 1.50000006e-01 2.50000000e-01 3.49999994e-01
      3.49999994e-01 4.50000018e-01 5.00000000e-01 6.00000024e-01
      6.00000024e-01 6.99999988e-01 1. 9.00000036e-01 8.50000024e-01
      6.99999988e-01 4.50000018e-01 0. 0. 0. 0. 0. 0. 0.</_>
    <_>
      0. 0. 1. 1. 1. 0. 0. 0. 0. 0. 1. 0. 0. 0. 0. 0. 0. 0. 1. 0. 0. 1.
      1. 0. 0. 0. 1. 1. 1. 1. 0. 0. 0. 1. 0. 0. 0. 0. 1. 0. 0. 1. 0. 0.
      0. 0. 1. 0. 0. 1. 1. 0. 0. 1. 0. 0. 0. 0. 1. 1. 1. 0. 0. 0.
      3.84615421e-01 5.38461566e-01 6.92307711e-01 3.84615421e-01
      2.30769232e-01 2.30769232e-01 3.84615421e-01 4.61538494e-01
      3.84615421e-01 6.15384638e-01 1. 9.23076987e-01 6.15384638e-01
      7.69230872e-02 0. 1.53846160e-01 2.30769232e-01 3.07692349e-01
      2.30769232e-01 2.30769232e-01 3.84615421e-01 4.61538494e-01
      5.38461566e-01 6.15384638e-01 8.46153855e-01 6.92307711e-01
      5.38461566e-01 2.30769232e-01 0. 0. 0. 0. 0. 4.44444448e-01
      6.66666687e-01 8.88888896e-01 8.33333313e-01 8.88888896e-01
      7.22222209e-01 6.66666687e-01 5.55555582e-01 5.00000000e-01
      5.55555582e-01 5.55555582e-01 5.55555582e-01 7.22222209e-01
      6.66666687e-01 6.66666687e-01 1. 9.44444478e-01 2.22222224e-01 0.
      0. 0. 0. 0.</_>
    <_>
      0. 0. 0. 0. 1. 1. 1. 0. 0. 0. 0. 1. 1. 1. 1. 0. 0. 0. 1. 1. 0. 0.
      1. 0. 0. 0. 1. 1. 0. 1. 1. 0. 0. 1. 1. 0. 0. 1. 1. 0. 0. 1. 0. 0.
      0. 1. 0. 0. 0. 1. 1. 1. 1. 1. 0. 0. 0. 0. 1. 1. 1. 0. 0. 0.
      3.99999976e-01 5.00000000e-01 6.00000024e-01 7.00000048e-01
      7.00000048e-01 6.00000024e-01 6.00000024e-01 7.00000048e-01
      6.00000024e-01 3.99999976e-01 3.99999976e-01 3.99999976e-01
      3.00000012e-01 1.99999988e-01 3.00000012e-01 3.00000012e-01
      3.00000012e-01 9.99999642e-02 9.99999642e-02 1.99999988e-01
      3.00000012e-01 3.99999976e-01 1. 8.99999976e-01 7.00000048e-01
      6.00000024e-01 3.00000012e-01 0. 0. 0. 0. 0. 2.38095239e-01
      5.23809552e-01 5.71428597e-01 6.66666687e-01 7.61904776e-01
      8.09523821e-01 8.09523821e-01 7.61904776e-01 7.61904776e-01
      7.61904776e-01 7.14285731e-01 7.14285731e-01 6.19047642e-01
      5.71428597e-01 5.71428597e-01 8.09523821e-01 9.04761910e-01 1.
      8.09523821e-01 6.19047642e-01 0. 0. 0. 0.</_>
    <_>
      0. 0. 0. 1. 1. 1. 0. 0. 0. 0. 1. 1. 0. 0. 0. 0. 0. 0. 1. 0. 0. 0.
      0. 0. 0. 0. 1. 0. 0. 0. 0. 0. 0. 0. 1. 1. 0. 0. 0. 0. 0. 0. 0. 1.
      1. 0. 0. 0. 0. 0. 0. 0. 1. 0. 0. 0. 0. 0. 0. 0. 1. 0. 0. 0.
      6.00000024e-01 8.00000012e-01 1. 7.00000048e-01 6.00000024e-01
      3.00000012e-01 3.00000012e-01 3.00000012e-01 2.00000003e-01
      2.00000003e-01 2.00000003e-01 2.00000003e-01 2.00000003e-01
      1.00000009e-01 1.00000009e-01 5.00000000e-01 6.00000024e-01
      8.00000012e-01 8.00000012e-01 3.00000012e-01 2.00000003e-01
      1.00000009e-01 1.00000009e-01 1.00000009e-01 1.00000009e-01
      1.00000009e-01 1.00000009e-01 0. 0. 0. 0. 0. 0. 0. 5.29411793e-01
      8.23529422e-01 9.41176474e-01 1. 5.88235319e-01 4.70588237e-01
      4.70588237e-01 5.29411793e-01 5.29411793e-01 8.82352948e-01
      8.82352948e-01 7.05882370e-01 1.76470593e-01 1.76470593e-01
      1.76470593e-01 5.88235296e-02 0. 0. 0. 0. 0. 0.</_>
    <_>
      0. 1. 1. 0. 0. 0. 0. 0. 1. 1. 1. 1. 1. 1. 1. 0. 1. 0. 0. 0. 0. 0.
      1. 0. 1. 0. 0. 0. 0. 0. 0. 1. 1. 0. 0. 0. 0. 0. 0. 1. 1. 1. 0. 0.
      0. 0. 0. 1. 0. 1. 1. 1. 0. 0. 1. 1. 0. 0. 0. 1. 1. 1. 0. 0. 0.
      2.10526317e-01 3.15789461e-01 7.89473712e-01 1. 8.42105269e-01
      5.78947365e-01 4.21052635e-01 4.21052635e-01 3.68421048e-01
      3.68421048e-01 3.15789461e-01 3.15789461e-01 3.68421048e-01
      3.15789461e-01 3.68421048e-01 3.15789461e-01 3.68421048e-01
      3.68421048e-01 4.21052635e-01 4.73684222e-01 4.73684222e-01
      5.78947365e-01 8.94736826e-01 8.94736826e-01 7.36842096e-01
      4.21052635e-01 0. 2.22222209e-01 6.66666687e-01 9.99999940e-01
      6.66666687e-01 3.33333313e-01 3.33333313e-01 2.22222209e-01
      3.33333313e-01 2.22222209e-01 2.22222209e-01 1.11111104e-01
      2.22222209e-01 2.22222209e-01 0. 1.11111104e-01 1.11111104e-01 0.
      0. 1.11111104e-01 1.11111104e-01 0. 3.33333313e-01 3.33333313e-01
      3.33333313e-01 6.66666687e-01 8.88888896e-01 6.66666687e-01
      2.22222209e-01</_>
    <_>
      0. 0. 0. 0. 0. 0. 0. 0. 0. 1. 1. 0. 0. 0. 0. 0. 1. 0. 1. 1. 0. 0.
      0. 0. 0. 0. 1. 1. 0. 0. 0. 0. 1. 1. 0. 0. 0. 0. 0. 0. 1. 1. 1. 1.
      1. 1. 1. 1. 0. 1. 1. 1. 0. 0. 0. 0. 0. 0. 0. 0. 0. 0. 0. 0. 0. 0.
      0. 0. 0. 3.47826093e-01 4.34782624e-01 4.78260875e-01
      1.73913047e-01 1.73913047e-01 1.73913047e-01 1.73913047e-01
      2.17391312e-01 2.60869563e-01 2.60869563e-01 2.60869563e-01
      2.17391312e-01 4.34782624e-01 8.69565248e-01 1. 8.69565248e-01
      5.65217376e-01 3.47826093e-01 0. 0. 0. 0. 0. 0. 3.63636374e-01
      5.45454562e-01 8.18181813e-01 7.27272749e-01 8.18181813e-01
      7.27272749e-01 7.27272749e-01 9.09090936e-01 1. 1. 6.36363685e-01
      2.72727281e-01 1.81818187e-01 1.81818187e-01 1.81818187e-01
      9.09090936e-02 9.09090936e-02 9.09090936e-02 9.09090936e-02
      9.09090936e-02 1.81818187e-01 9.09090936e-02 9.09090936e-02
      9.09090936e-02 9.09090936e-02 0. 0.</_>
    <_>
      0. 0. 0. 0. 0. 0. 0. 0. 0. 1. 1. 1. 1. 1. 1. 0. 0. 0. 0. 0. 1. 1.
      0. 0. 0. 0. 0. 1. 1. 0. 0. 0. 0. 1. 1. 1. 0. 0. 0. 0. 1. 1. 0. 0.
      0. 0. 1. 1. 1. 1. 1. 1. 1. 1. 1. 0. 0. 0. 0. 0. 0. 0. 0. 0. 0. 0.
      0. 6.92307711e-01 8.07692349e-01 8.46153855e-01 8.07692349e-01
      4.23076928e-01 3.84615391e-01 3.07692319e-01 3.46153855e-01
      3.07692319e-01 3.07692319e-01 2.69230783e-01 3.07692319e-01
      2.69230783e-01 3.07692319e-01 3.46153855e-01 5.00000000e-01
      6.15384638e-01 8.84615421e-01 1. 9.23076987e-01 8.07692349e-01
      4.61538494e-01 0. 0. 0. 1.49011612e-08 2.30769262e-01
      6.15384638e-01 7.69230783e-01 8.46153915e-01 1. 8.46153915e-01
      7.69230783e-01 7.69230783e-01 8.46153915e-01 7.69230783e-01
      8.46153915e-01 8.46153915e-01 8.46153915e-01 9.23076928e-01
      9.23076928e-01 7.69230783e-01 8.46153915e-01 7.69230783e-01
      7.69230783e-01 7.69230783e-01 6.92307770e-01 3.84615421e-01
      3.07692349e-01 7.69230872e-02 1.53846160e-01 1.49011612e-08
      1.49011612e-08</_>
    <_>
      0. 0. 0. 0. 1. 1. 0. 0. 0. 0. 0. 1. 0. 0. 0. 0. 0. 0. 1. 1. 0. 0.
      1. 0. 0. 1. 0. 0. 0. 0. 1. 0. 0. 1. 0. 0. 0. 0. 1. 0. 0. 1. 0. 0.
      0. 0. 1. 0. 0. 1. 0. 0. 0. 1. 0. 0. 0. 0. 1. 1. 1. 0. 0. 0. 0.
      2.50000000e-01 3.75000000e-01 3.75000000e-01 2.50000000e-01
      3.75000000e-01 3.75000000e-01 6.25000000e-01 7.50000000e-01
      5.00000000e-01 2.50000000e-01 2.50000000e-01 3.75000000e-01
      1.25000000e-01 2.50000000e-01 1.25000000e-01 1.25000000e-01
      2.50000000e-01 1.25000000e-01 1.25000000e-01 1.25000000e-01
      1.25000000e-01 3.75000000e-01 3.75000000e-01 8.75000000e-01 1.
      6.25000000e-01 1.25000000e-01 0. 0. 0. 5.55555560e-02
      6.11111104e-01 8.33333313e-01 1. 6.11111104e-01 4.44444448e-01
      5.00000000e-01 5.55555582e-01 6.66666687e-01 5.00000000e-01
      6.66666687e-01 5.00000000e-01 3.88888896e-01 3.33333343e-01
      3.33333343e-01 4.44444448e-01 4.44444448e-01 5.00000000e-01
      8.88888896e-01 8.88888896e-01 6.66666687e-01 1.66666672e-01 0. 0.
      0.</_>
    <_>
      0. 1. 1. 1. 1. 0. 0. 0. 1. 1. 1. 1. 1. 1. 0. 0. 1. 0. 0. 0. 0. 1.
      1. 0. 0. 0. 0. 0. 0. 1. 1. 0. 0. 0. 0. 0. 0. 1. 1. 0. 0. 0. 0. 1.
      1. 1. 1. 1. 0. 0. 1. 1. 1. 1. 0. 0. 0. 0. 1. 1. 1. 0. 0. 0. 0.
      2.50000000e-01 7.50000000e-01 8.99999976e-01 1. 1. 1.
      5.00000000e-01 3.00000012e-01 1.00000001e-01 1.50000006e-01
      1.50000006e-01 1.50000006e-01 1.00000001e-01 1.00000001e-01
      2.50000000e-01 5.50000012e-01 6.99999988e-01 7.50000000e-01
      8.00000012e-01 8.00000012e-01 5.99999964e-01 4.50000018e-01
      4.50000018e-01 4.50000018e-01 4.00000006e-01 3.50000024e-01
      1.50000006e-01 0. 1.25000000e-01 1.87500000e-01 1.87500000e-01
      1.25000000e-01 1.25000000e-01 1.25000000e-01 6.25000000e-02
      3.12500000e-01 5.62500000e-01 6.87500000e-01 8.12500000e-01
      8.75000000e-01 8.12500000e-01 8.12500000e-01 8.12500000e-01
      8.12500000e-01 7.50000000e-01 8.12500000e-01 1. 9.37500000e-01
      8.75000000e-01 5.62500000e-01 3.12500000e-01 1.25000000e-01
      6.25000000e-02 6.25000000e-02 0.</_>
    <_>
      0. 0. 0. 0. 1. 1. 0. 0. 0. 0. 0. 1. 1. 0. 0. 0. 0. 0. 0. 0. 1. 0.
      0. 0. 0. 0. 0. 0. 1. 1. 0. 0. 0. 0. 0. 0. 0. 1. 0. 0. 0. 0. 0. 0.
      1. 1. 0. 0. 0. 0. 0. 0. 1. 1. 0. 0. 0. 0. 1. 1. 1. 0. 0. 0.
      1.66666687e-01 3.33333373e-01 5.00000000e-01 6.66666746e-01
      6.66666746e-01 5.00000000e-01 1.66666687e-01 0. 1.66666687e-01
      1.66666687e-01 1.66666687e-01 3.33333373e-01 3.33333373e-01
      3.33333373e-01 1.66666687e-01 1.66666687e-01 3.33333373e-01
      3.33333373e-01 1.66666687e-01 3.33333373e-01 5.00000000e-01
      1.66666687e-01 3.33333373e-01 3.33333373e-01 1. 1. 6.66666746e-01
      6.66666746e-01 0. 0. 0. 0. 0. 0. 0. 4.16666679e-02 4.16666679e-02
      1.25000000e-01 1.66666672e-01 1.66666672e-01 2.91666687e-01
      3.75000000e-01 6.66666687e-01 8.33333373e-01 1. 1. 7.91666687e-01
      4.16666687e-01 2.50000000e-01 0. 0. 0. 0. 0. 0. 0.</_>
    <_>
      0. 0. 0. 1. 1. 1. 0. 0. 0. 0. 1. 1. 1. 1. 0. 0. 0. 0. 1. 1. 1. 1.
      0. 0. 0. 0. 0. 0. 1. 0. 0. 0. 0. 0. 0. 0. 1. 0. 0. 0. 0. 0. 0. 1.
      0. 0. 0. 0. 0. 0. 0. 1. 0. 0. 0. 0. 0. 0. 1. 1. 0. 0. 0. 0.
      1.11111104e-01 4.44444448e-01 6.66666627e-01 7.77777791e-01
      5.55555582e-01 5.55555582e-01 6.66666627e-01 6.66666627e-01 1.
      8.88888836e-01 6.66666627e-01 0. 0. 0. 0. 1.11111104e-01 0.
      1.11111104e-01 0. 1.11111104e-01 1.11111104e-01 0. 1.11111104e-01
      1.11111104e-01 1.11111104e-01 0. 1.11111104e-01 0. 0. 0. 0. 0. 0.
      0. 0. 1.76470593e-01 4.11764711e-01 6.47058845e-01 7.64705896e-01
      8.82352948e-01 8.82352948e-01 1. 9.41176474e-01 9.41176474e-01
      9.41176474e-01 6.47058845e-01 5.88235319e-01 2.94117659e-01 0. 0.
      0. 0. 0. 0. 0. 0.</_>
    <_>
      0. 1. 1. 0. 0. 0. 0. 0. 0. 1. 1. 0. 0. 0. 0. 0. 0. 0. 1. 1. 0. 0.
      0. 0. 0. 0. 0. 1. 1. 0. 0. 0. 0. 0. 0. 0. 1. 1. 0. 0. 0. 0. 0. 0.
      1. 1. 0. 0. 0. 0. 0. 0. 0. 1. 1. 0. 0. 0. 0. 0. 0. 1. 1. 0. 0.
      3.33333373e-01 6.66666746e-01 8.33333373e-01 6.66666746e-01
      6.66666746e-01 6.66666746e-01 8.33333373e-01 6.66666746e-01
      6.66666746e-01 8.33333373e-01 1. 8.33333373e-01 5.00000000e-01
      6.66666746e-01 6.66666746e-01 5.00000000e-01 6.66666746e-01
      5.00000000e-01 6.66666746e-01 5.00000000e-01 5.00000000e-01
      6.66666746e-01 6.66666746e-01 6.66666746e-01 6.66666746e-01
      5.00000000e-01 3.33333373e-01 0. 0. 0. 1.66666672e-01
      3.33333343e-01 5.00000000e-01 6.66666687e-01 7.50000000e-01
      8.33333373e-01 8.33333373e-01 8.33333373e-01 6.66666687e-01
      7.50000000e-01 7.50000000e-01 7.50000000e-01 8.33333373e-01
      8.33333373e-01 1. 1. 1. 9.16666687e-01 7.50000000e-01
      5.83333373e-01 5.00000000e-01 4.16666687e-01 0. 0. 0.</_>
    <_>
      0. 0. 0. 1. 1. 1. 0. 0. 0. 0. 0. 1. 1. 1. 0. 0. 0. 0. 0. 1. 1. 1.
      0. 0. 0. 0. 0. 1. 1. 0. 0. 0. 0. 0. 0. 1. 1. 0. 0. 0. 0. 0. 1. 1.
      0. 0. 0. 0. 0. 0. 1. 1. 0. 0. 0. 0. 0. 0. 1. 0. 0. 0. 0. 0.
      9.99999940e-02 5.00000000e-01 7.00000048e-01 9.00000095e-01 1.
      5.00000000e-01 4.00000006e-01 5.00000000e-01 2.99999982e-01
      6.00000024e-01 5.00000000e-01 2.99999982e-01 2.99999982e-01
      2.00000018e-01 9.99999940e-02 2.00000018e-01 2.99999982e-01
      2.99999982e-01 4.00000006e-01 4.00000006e-01 2.99999982e-01
      4.00000006e-01 4.00000006e-01 4.00000006e-01 2.99999982e-01
      2.99999982e-01 9.99999940e-02 0. 0. 0. 0. 0. 0. 1.19999997e-01
      2.80000001e-01 3.59999985e-01 3.99999976e-01 6.80000007e-01
      8.39999974e-01 1. 8.79999995e-01 7.59999990e-01 6.39999986e-01
      5.99999964e-01 4.79999989e-01 5.19999981e-01 3.99999976e-01
      3.59999985e-01 2.39999995e-01 1.59999996e-01 3.99999991e-02 0. 0.
      0. 0. 0.</_>
    <_>
      0. 0. 0. 0. 0. 1. 1. 0. 0. 0. 0. 1. 1. 1. 0. 0. 0. 0. 0. 1. 0. 0.
      0. 0. 0. 0. 0. 0. 1. 1. 0. 0. 0. 0. 0. 0. 0. 1. 1. 0. 0. 1. 1. 0.
      0. 0. 1. 0. 0. 1. 1. 0. 0. 1. 1. 0. 0. 0. 0. 1. 1. 1. 0. 0. 0.
      2.72727251e-01 4.54545498e-01 6.36363626e-01 4.54545498e-01
      3.63636374e-01 2.72727251e-01 9.09090936e-02 9.09090936e-02
      1.81818187e-01 1.81818187e-01 2.72727251e-01 1.81818187e-01
      1.81818187e-01 1.81818187e-01 9.09090936e-02 9.09090936e-02
      4.54545498e-01 6.36363626e-01 5.45454562e-01 4.54545498e-01
      4.54545498e-01 6.36363626e-01 8.18181872e-01 1. 6.36363626e-01
      4.54545498e-01 0. 0. 0. 0. 2.00000018e-01 2.66666681e-01
      4.00000036e-01 4.66666698e-01 5.33333361e-01 4.66666698e-01
      5.33333361e-01 6.66666687e-01 7.33333349e-01 8.66666734e-01
      8.66666734e-01 8.66666734e-01 9.33333397e-01 8.66666734e-01
      8.66666734e-01 8.66666734e-01 8.66666734e-01 8.66666734e-01 1.
      8.66666734e-01 6.66666687e-01 2.00000018e-01 0. 0. 0.</_>
    <_>
      0. 0. 1. 1. 1. 0. 0. 0. 0. 0. 0. 0. 1. 1. 0. 0. 0. 0. 0. 0. 0. 1.
      0. 0. 0. 0. 0. 0. 0. 1. 0. 0. 0. 0. 0. 0. 0. 1. 0. 0. 0. 0. 0. 0.
      1. 0. 0. 0. 0. 0. 0. 1. 1. 0. 0. 0. 0. 0. 1. 1. 0. 0. 0. 0.
      6.66666746e-01 1. 6.66666746e-01 3.33333373e-01 3.33333373e-01
      3.33333373e-01 1.66666687e-01 0. 0. 1.66666687e-01 1.66666687e-01
      1.66666687e-01 0. 0. 0. 1.66666687e-01 0. 1.66666687e-01 0. 0. 0.
      1.66666687e-01 1.66666687e-01 1.66666687e-01 1.66666687e-01
      3.33333373e-01 5.00000000e-01 5.00000000e-01 0. 0. 0. 0. 0. 0.
      6.25000000e-02 1.25000000e-01 2.50000000e-01 3.12500000e-01
      3.75000000e-01 5.00000000e-01 5.00000000e-01 5.00000000e-01
      5.00000000e-01 5.00000000e-01 6.25000000e-01 6.25000000e-01 1.
      8.75000000e-01 6.87500000e-01 1.87500000e-01 0. 0. 0. 0. 0. 0.</_>
    <_>
      0. 0. 1. 0. 0. 0. 0. 0. 0. 1. 0. 0. 0. 1. 0. 0. 0. 1. 0. 0. 1. 1.
      0. 0. 0. 1. 0. 0. 1. 0. 0. 0. 0. 0. 1. 1. 1. 1. 1. 0. 0. 0. 0. 1.
      1. 1. 0. 0. 0. 0. 0. 1. 0. 0. 0. 0. 0. 0. 1. 1. 0. 0. 0. 0. 0.
      7.14285821e-02 7.14285821e-02 2.85714328e-01 2.14285716e-01
      2.14285716e-01 2.85714328e-01 2.85714328e-01 2.85714328e-01
      2.85714328e-01 2.85714328e-01 2.14285716e-01 3.57142866e-01
      4.28571463e-01 3.57142866e-01 7.85714328e-01 1. 7.85714328e-01
      4.28571463e-01 7.14285821e-02 7.14285821e-02 0. 7.14285821e-02
      7.14285821e-02 0. 7.14285821e-02 7.14285821e-02 0. 0. 0. 0. 0.
      5.00000000e-01 7.85714328e-01 1. 7.14285731e-01 5.71428597e-01
      4.28571463e-01 6.42857194e-01 8.57142925e-01 6.42857194e-01
      5.71428597e-01 5.00000000e-01 7.14285731e-01 7.14285731e-01
      5.00000000e-01 5.71428597e-01 5.71428597e-01 2.14285731e-01
      2.14285731e-01 2.14285731e-01 1.42857149e-01 0. 0. 0. 0.</_>
    <_>
      0. 0. 1. 1. 1. 1. 0. 0. 0. 1. 0. 0. 0. 1. 0. 0. 0. 0. 1. 0. 1. 1.
      0. 0. 0. 0. 0. 1. 1. 0. 0. 0. 0. 0. 0. 1. 1. 0. 0. 0. 0. 0. 1. 0.
      0. 1. 0. 0. 0. 0. 1. 0. 0. 1. 0. 0. 0. 0. 0. 1. 1. 1. 0. 0.
      6.25000000e-01 1. 8.75000000e-01 1.25000000e-01 0. 2.50000000e-01
      2.50000000e-01 2.50000000e-01 3.75000000e-01 5.00000000e-01
      3.75000000e-01 1.25000000e-01 0. 0. 2.50000000e-01 2.50000000e-01
      1.25000000e-01 0. 2.50000000e-01 2.50000000e-01 1.25000000e-01 0.
      2.50000000e-01 1.25000000e-01 1.25000000e-01 3.75000000e-01
      6.25000000e-01 2.50000000e-01 0. 0. 0. 0. 6.66666701e-02
      2.66666681e-01 4.00000036e-01 3.33333343e-01 7.33333349e-01
      8.66666734e-01 9.33333397e-01 8.66666734e-01 8.00000072e-01
      5.33333361e-01 6.00000024e-01 6.66666687e-01 7.33333349e-01
      8.66666734e-01 9.33333397e-01 1. 6.66666687e-01 3.33333343e-01 0.
      0. 0. 0. 0. 0.</_>
    <_>
      0. 0. 1. 1. 1. 1. 0. 0. 0. 0. 1. 0. 0. 0. 0. 0. 0. 0. 0. 0. 0. 0.
      1. 0. 0. 0. 1. 0. 1. 1. 0. 0. 0. 0. 1. 1. 0. 0. 0. 0. 0. 1. 1. 1.
      0. 0. 0. 0. 1. 1. 1. 1. 0. 0. 0. 0. 1. 1. 1. 0. 0. 0. 0. 0.
      3.33333373e-01 7.50000000e-01 9.16666746e-01 1. 4.16666687e-01 0.
      0. 3.33333373e-01 3.33333373e-01 3.33333373e-01 4.16666687e-01
      4.16666687e-01 4.16666687e-01 4.16666687e-01 4.16666687e-01
      2.50000000e-01 1.66666687e-01 2.50000000e-01 3.33333373e-01
      4.16666687e-01 5.00000000e-01 4.16666687e-01 5.00000000e-01
      6.66666687e-01 8.33333373e-01 7.50000000e-01 5.00000000e-01
      3.33333373e-01 0. 1.66666672e-01 3.33333343e-01 4.44444448e-01
      4.44444448e-01 5.00000000e-01 7.22222209e-01 1. 1. 8.33333313e-01
      8.33333313e-01 7.22222209e-01 9.44444478e-01 9.44444478e-01
      6.11111104e-01 4.44444448e-01 4.44444448e-01 4.44444448e-01
      3.33333343e-01 3.88888896e-01 3.88888896e-01 2.22222224e-01
      2.22222224e-01 1.66666672e-01 1.66666672e-01 1.66666672e-01
      5.55555560e-02 0.</_>
    <_>
      0. 0. 0. 0. 1. 1. 0. 0. 0. 0. 0. 1. 0. 1. 1. 0. 0. 0. 0. 1. 0. 0.
      1. 0. 0. 0. 0. 0. 0. 1. 0. 0. 0. 0. 1. 1. 1. 1. 0. 0. 0. 0. 0. 0.
      1. 0. 0. 0. 0. 0. 0. 0. 1. 0. 0. 0. 0. 0. 0. 1. 0. 0. 0. 0.
      2.30769232e-01 3.84615421e-01 4.61538494e-01 3.84615421e-01
      3.07692349e-01 3.07692349e-01 2.30769232e-01 3.07692349e-01
      3.07692349e-01 2.30769232e-01 3.07692349e-01 7.69230872e-02 0.
      7.69230872e-02 2.30769232e-01 8.46153855e-01 1. 1. 3.84615421e-01
      7.69230872e-02 1.53846160e-01 7.69230872e-02 1.53846160e-01
      1.53846160e-01 1.53846160e-01 7.69230872e-02 0. 0. 0. 0. 0. 0. 0.
      6.25000000e-02 1.25000000e-01 1.87500000e-01 1.87500000e-01
      1.87500000e-01 4.37500000e-01 5.62500000e-01 1. 8.12500000e-01
      8.12500000e-01 8.75000000e-01 7.50000000e-01 6.25000000e-01
      5.62500000e-01 8.12500000e-01 1. 6.87500000e-01 2.50000000e-01 0.
      0. 0. 0. 0.</_>
    <_>
      0. 0. 1. 1. 1. 0. 0. 0. 0. 1. 0. 0. 1. 1. 1. 0. 0. 1. 1. 1. 0. 1.
      0. 0. 0. 0. 0. 0. 0. 1. 0. 0. 0. 0. 0. 0. 0. 1. 0. 0. 0. 0. 0. 0.
      1. 0. 0. 0. 0. 0. 0. 0. 1. 0. 0. 0. 0. 0. 0. 0. 1. 0. 0. 0.
      3.84615421e-01 5.38461566e-01 6.15384638e-01 6.15384638e-01
      6.92307770e-01 6.92307770e-01 6.92307770e-01 6.92307770e-01 1.
      8.46153915e-01 6.15384638e-01 1.49011612e-08 1.49011612e-08
      7.69230872e-02 1.49011612e-08 7.69230872e-02 7.69230872e-02
      1.49011612e-08 1.49011612e-08 1.49011612e-08 7.69230872e-02
      1.49011612e-08 1.49011612e-08 1.49011612e-08 1.49011612e-08
      7.69230872e-02 7.69230872e-02 1.49011612e-08 0. 0. 0.
      2.77777791e-01 3.88888896e-01 5.00000000e-01 3.88888896e-01
      3.88888896e-01 3.33333343e-01 3.88888896e-01 3.33333343e-01
      3.33333343e-01 3.33333343e-01 2.77777791e-01 7.22222209e-01
      8.33333313e-01 1. 7.77777791e-01 6.66666687e-01 6.66666687e-01
      6.11111104e-01 4.44444448e-01 3.33333343e-01 2.22222224e-01
      1.11111112e-01 0. 0. 0.</_>
    <_>
      0. 0. 0. 1. 0. 0. 0. 0. 0. 0. 1. 1. 0. 1. 0. 0. 0. 1. 1. 0. 1. 1.
      0. 0. 0. 0. 1. 1. 1. 0. 0. 0. 0. 0. 0. 1. 1. 1. 0. 0. 0. 0. 0. 1.
      0. 1. 0. 0. 0. 0. 0. 1. 1. 1. 0. 0. 0. 0. 0. 1. 1. 0. 0. 0. 0. 0.
      9.09090936e-02 9.09090936e-02 2.72727281e-01 5.45454562e-01
      7.27272749e-01 5.45454562e-01 5.45454562e-01 4.54545438e-01
      8.18181813e-01 1. 8.18181813e-01 3.63636374e-01 2.72727281e-01
      3.63636374e-01 3.63636374e-01 3.63636374e-01 3.63636374e-01
      3.63636374e-01 3.63636374e-01 4.54545438e-01 3.63636374e-01
      4.54545438e-01 4.54545438e-01 4.54545438e-01 2.72727281e-01
      2.72727281e-01 0. 0. 0. 0. 0. 1.73913047e-01 2.17391312e-01
      3.04347843e-01 3.47826093e-01 3.04347843e-01 5.21739125e-01
      7.82608688e-01 1. 6.95652187e-01 4.78260875e-01 4.78260875e-01
      6.08695686e-01 7.82608688e-01 5.65217376e-01 3.91304344e-01
      1.30434781e-01 1.30434781e-01 0. 0. 0. 0. 0. 0.</_>
    <_>
      0. 0. 0. 1. 1. 1. 1. 0. 0. 0. 1. 1. 1. 1. 1. 0. 0. 0. 1. 0. 1. 1.
      0. 0. 0. 0. 0. 1. 1. 0. 0. 0. 0. 0. 1. 1. 0. 0. 0. 0. 0. 1. 1. 0.
      0. 0. 0. 0. 1. 1. 1. 1. 1. 1. 1. 1. 1. 1. 1. 1. 1. 0. 0. 0. 0.
      2.96296299e-01 4.81481493e-01 5.55555582e-01 6.66666687e-01
      6.29629612e-01 4.81481493e-01 4.81481493e-01 2.96296299e-01
      2.22222224e-01 2.22222224e-01 2.22222224e-01 2.22222224e-01
      2.22222224e-01 1.85185194e-01 1.85185194e-01 1.85185194e-01
      1.85185194e-01 1.85185194e-01 1.85185194e-01 1.85185194e-01
      4.81481493e-01 1. 9.62962985e-01 8.51851881e-01 7.03703701e-01
      4.44444448e-01 0. 1.53846160e-01 3.07692349e-01 3.84615421e-01
      4.61538494e-01 5.38461566e-01 6.15384638e-01 7.69230843e-01
      7.69230843e-01 9.23076987e-01 8.46153855e-01 9.23076987e-01
      8.46153855e-01 8.46153855e-01 8.46153855e-01 8.46153855e-01 1. 1.
      8.46153855e-01 1. 8.46153855e-01 7.69230843e-01 6.92307711e-01
      6.92307711e-01 5.38461566e-01 3.84615421e-01 1.53846160e-01 0. 0.</_>
    <_>
      0. 0. 1. 1. 1. 1. 0. 0. 0. 0. 0. 1. 1. 1. 0. 0. 0. 0. 0. 0. 1. 1.
      0. 0. 0. 0. 0. 1. 1. 1. 0. 0. 0. 0. 0. 1. 1. 0. 0. 0. 0. 0. 1. 1.
      1. 0. 0. 0. 0. 0. 1. 1. 1. 0. 0. 0. 0. 0. 1. 1. 0. 0. 0. 0.
      1.53846174e-01 9.23076987e-01 9.23076987e-01 1.00000012e+00
      9.23076987e-01 4.61538464e-01 2.30769247e-01 3.07692319e-01
      2.30769247e-01 2.30769247e-01 2.30769247e-01 2.30769247e-01
      2.30769247e-01 3.07692319e-01 2.30769247e-01 3.07692319e-01
      3.07692319e-01 3.84615391e-01 3.07692319e-01 3.84615391e-01
      3.07692319e-01 3.07692319e-01 3.07692319e-01 3.07692319e-01
      3.07692319e-01 3.07692319e-01 1.53846174e-01 0. 0. 0. 0. 0. 0.
      7.99999982e-02 1.59999996e-01 1.99999988e-01 4.79999989e-01
      5.99999964e-01 7.19999969e-01 7.59999990e-01 8.39999974e-01
      9.59999979e-01 1. 1. 7.59999990e-01 6.80000007e-01 5.19999981e-01
      4.39999998e-01 3.19999993e-01 2.39999995e-01 7.99999982e-02 0. 0.
      0. 0. 0.</_>
    <_>
      0. 0. 0. 0. 0. 0. 1. 0. 0. 1. 1. 1. 1. 1. 1. 0. 0. 1. 1. 1. 0. 1.
      1. 0. 0. 0. 0. 0. 0. 1. 0. 0. 0. 0. 0. 0. 1. 1. 0. 0. 0. 0. 0. 0.
      1. 0. 0. 0. 0. 0. 0. 0. 1. 0. 0. 0. 0. 0. 0. 0. 1. 0. 0. 0.
      6.66666776e-02 1.33333340e-01 5.33333361e-01 8.00000072e-01
      8.66666675e-01 1.00000012e+00 9.33333397e-01 1.00000012e+00
      9.33333397e-01 7.33333409e-01 5.33333361e-01 2.00000003e-01
      1.33333340e-01 2.00000003e-01 1.33333340e-01 1.33333340e-01
      1.33333340e-01 1.33333340e-01 1.33333340e-01 1.33333340e-01
      1.33333340e-01 1.33333340e-01 1.33333340e-01 6.66666776e-02
      1.33333340e-01 2.00000003e-01 1.33333340e-01 0. 0. 0.
      5.88235296e-02 1.76470593e-01 2.94117659e-01 4.11764711e-01
      4.11764711e-01 4.70588237e-01 3.52941185e-01 3.52941185e-01
      4.70588237e-01 3.52941185e-01 4.11764711e-01 7.05882370e-01
      8.23529422e-01 8.82352948e-01 1. 7.05882370e-01 8.23529422e-01
      8.23529422e-01 7.05882370e-01 5.88235319e-01 5.29411793e-01
      3.52941185e-01 2.35294119e-01 0. 0. 0.</_>
    <_>
      0. 0. 0. 0. 0. 0. 0. 0. 0. 0. 0. 0. 0. 0. 1. 1. 0. 0. 0. 1. 1. 1.
      1. 0. 0. 0. 1. 1. 0. 0. 0. 0. 0. 0. 1. 1. 1. 0. 0. 0. 1. 0. 1. 1.
      0. 0. 0. 0. 1. 1. 1. 0. 0. 0. 0. 0. 0. 0. 0. 0. 0. 0. 0. 0. 0. 0.
      0. 0. 0. 4.61538494e-01 6.15384638e-01 1. 8.46153855e-01
      6.15384638e-01 3.84615391e-01 3.07692319e-01 3.07692319e-01
      3.84615391e-01 5.38461566e-01 6.15384638e-01 2.30769247e-01
      3.07692319e-01 3.84615391e-01 4.61538494e-01 8.46153855e-01
      9.23076987e-01 7.69230783e-01 0. 0. 0. 0. 0. 9.09090936e-02
      3.63636374e-01 3.63636374e-01 9.09090936e-02 9.09090936e-02
      1.81818187e-01 1.81818187e-01 1.81818187e-01 4.54545468e-01
      5.45454502e-01 7.27272749e-01 8.18181872e-01 1. 9.09090877e-01
      8.18181872e-01 4.54545468e-01 1.81818187e-01 1.81818187e-01
      1.81818187e-01 1.81818187e-01 1.81818187e-01 1.81818187e-01
      2.72727281e-01 1.81818187e-01 1.81818187e-01 1.81818187e-01
      9.09090936e-02 0.</_>
    <_>
      0. 0. 0. 0. 0. 1. 1. 0. 0. 0. 0. 0. 1. 0. 1. 1. 0. 0. 0. 1. 0. 0.
      1. 0. 0. 0. 0. 0. 0. 0. 1. 0. 0. 1. 1. 0. 0. 0. 1. 0. 1. 1. 1. 1.
      0. 1. 0. 0. 1. 1. 0. 0. 1. 1. 0. 0. 0. 1. 1. 1. 0. 0. 0. 0. 0.
      1.81818187e-01 3.63636345e-01 5.45454621e-01 2.72727281e-01
      2.72727281e-01 3.63636345e-01 2.72727281e-01 1.81818187e-01 0. 0.
      0. 0. 0. 2.72727281e-01 3.63636345e-01 4.54545468e-01
      8.18181872e-01 1. 9.09090996e-01 2.72727281e-01 2.72727281e-01
      2.72727281e-01 3.63636345e-01 4.54545468e-01 1. 6.36363626e-01
      3.63636345e-01 0. 1.25000000e-01 5.62500000e-01 6.25000000e-01
      5.00000000e-01 5.00000000e-01 4.37500000e-01 4.37500000e-01
      4.37500000e-01 3.75000000e-01 3.75000000e-01 3.75000000e-01
      4.37500000e-01 4.37500000e-01 5.00000000e-01 3.75000000e-01
      3.12500000e-01 3.75000000e-01 3.75000000e-01 4.37500000e-01
      5.00000000e-01 5.62500000e-01 8.12500000e-01 1. 9.37500000e-01
      2.50000000e-01 0. 0.</_>
    <_>
      0. 0. 0. 1. 1. 1. 1. 0. 0. 1. 1. 1. 1. 1. 1. 1. 0. 0. 0. 0. 0. 1.
      1. 1. 0. 0. 1. 1. 1. 1. 1. 0. 0. 0. 1. 1. 0. 1. 1. 0. 0. 0. 0. 0.
      0. 1. 1. 0. 1. 1. 1. 1. 1. 1. 0. 0. 0. 1. 1. 1. 1. 0. 0. 0.
      1.25000000e-01 4.58333343e-01 7.08333373e-01 8.75000000e-01 1.
      7.08333373e-01 4.16666687e-01 2.50000000e-01 2.91666687e-01
      3.33333343e-01 3.75000000e-01 5.00000000e-01 5.41666687e-01
      5.83333373e-01 5.83333373e-01 3.33333343e-01 1.66666672e-01
      1.66666672e-01 1.66666672e-01 1.66666672e-01 2.91666687e-01
      3.75000000e-01 5.83333373e-01 8.75000000e-01 6.66666687e-01
      5.41666687e-01 4.58333343e-01 0. 0. 5.88235259e-02 1.17647067e-01
      1.76470593e-01 2.94117630e-01 2.94117630e-01 2.35294119e-01
      2.94117630e-01 4.70588267e-01 5.88235319e-01 5.29411793e-01
      5.88235319e-01 5.88235319e-01 5.88235319e-01 6.47058845e-01
      5.88235319e-01 5.29411793e-01 5.88235319e-01 5.88235319e-01 1. 1.
      9.41176474e-01 7.05882370e-01 3.52941215e-01 3.52941215e-01
      2.94117630e-01 2.35294119e-01 1.17647067e-01</_>
    <_>
      0. 0. 0. 1. 0. 0. 0. 0. 0. 0. 0. 1. 1. 0. 0. 0. 0. 0. 0. 0. 1. 0.
      0. 0. 0. 0. 0. 0. 1. 0. 0. 0. 0. 0. 0. 0. 1. 0. 0. 0. 0. 0. 0. 1.
      1. 0. 0. 0. 0. 0. 0. 1. 0. 0. 0. 0. 0. 0. 1. 1. 1. 0. 0. 0. 0.
      9.99999940e-02 9.99999940e-02 9.99999940e-02 9.99999940e-02
      1.99999988e-01 9.99999940e-02 1.99999988e-01 1.99999988e-01
      9.99999940e-02 9.99999940e-02 9.99999940e-02 9.99999940e-02
      9.99999940e-02 9.99999940e-02 0. 0. 0. 0. 9.99999940e-02
      9.99999940e-02 1.99999988e-01 1.99999988e-01 1.99999988e-01
      3.00000012e-01 1. 9.00000036e-01 6.99999988e-01 0. 0. 0. 0. 0. 0.
      0. 1.53846160e-01 1.53846160e-01 1.92307696e-01 2.69230783e-01
      3.84615391e-01 5.76923072e-01 7.30769277e-01 1. 7.69230783e-01
      5.76923072e-01 3.84615391e-01 7.69230798e-02 3.84615399e-02 0. 0.
      0. 0. 0. 0. 0. 0.</_>
    <_>
      0. 0. 1. 1. 1. 0. 0. 0. 0. 1. 1. 1. 1. 1. 0. 0. 0. 1. 1. 1. 0. 0.
      0. 0. 0. 0. 0. 1. 1. 1. 0. 0. 0. 0. 0. 0. 0. 1. 1. 0. 0. 0. 0. 0.
      0. 1. 1. 0. 0. 1. 1. 0. 1. 1. 1. 0. 0. 0. 1. 1. 1. 1. 0. 0. 0.
      3.63636345e-01 7.27272749e-01 9.09090996e-01 1. 9.09090996e-01
      2.72727281e-01 2.72727281e-01 4.54545468e-01 5.45454621e-01
      4.54545468e-01 2.72727281e-01 1.81818187e-01 1.81818187e-01
      1.81818187e-01 9.09090936e-02 0. 0. 0. 9.09090936e-02
      2.72727281e-01 4.54545468e-01 6.36363626e-01 6.36363626e-01
      9.09090996e-01 8.18181872e-01 6.36363626e-01 4.54545468e-01 0. 0.
      0. 0. 1.42857149e-01 3.57142866e-01 7.85714328e-01 8.57142925e-01
      9.28571463e-01 1. 9.28571463e-01 7.85714328e-01 8.57142925e-01
      8.57142925e-01 9.28571463e-01 9.28571463e-01 9.28571463e-01 1. 1.
      1. 8.57142925e-01 7.14285731e-01 3.57142866e-01 0. 0. 0. 0. 0.</_>
    <_>
      0. 0. 1. 1. 1. 1. 0. 0. 0. 0. 1. 0. 0. 1. 0. 0. 0. 1. 1. 0. 0. 1.
      0. 0. 0. 0. 1. 0. 0. 1. 0. 0. 0. 0. 1. 1. 1. 0. 0. 0. 0. 0. 1. 1.
      1. 1. 0. 0. 0. 0. 1. 0. 0. 1. 0. 0. 0. 0. 1. 0. 1. 1. 0. 0.
      1.25000000e-01 6.25000000e-01 1. 7.50000000e-01 2.50000000e-01
      1.25000000e-01 1.25000000e-01 2.50000000e-01 2.50000000e-01
      2.50000000e-01 2.50000000e-01 3.75000000e-01 6.25000000e-01
      6.25000000e-01 6.25000000e-01 5.00000000e-01 5.00000000e-01
      8.75000000e-01 6.25000000e-01 2.50000000e-01 1.25000000e-01 0. 0.
      0. 1.25000000e-01 1.25000000e-01 3.75000000e-01 6.25000000e-01 0.
      0. 0. 0. 0. 7.99999982e-02 3.99999976e-01 8.39999974e-01 1.
      6.39999986e-01 5.19999981e-01 3.99999976e-01 3.59999985e-01
      3.19999993e-01 3.59999985e-01 3.99999976e-01 5.60000002e-01
      7.99999952e-01 7.59999990e-01 7.99999952e-01 3.99999976e-01
      2.80000001e-01 0. 0. 0. 0. 0. 0.</_>
    <_>
      0. 0. 0. 0. 1. 1. 0. 0. 0. 0. 0. 1. 1. 1. 0. 0. 0. 0. 0. 1. 1. 0.
      0. 0. 0. 0. 0. 0. 1. 0. 0. 0. 0. 0. 0. 0. 1. 0. 0. 0. 0. 1. 0. 1.
      0. 0. 0. 1. 1. 1. 1. 1. 0. 0. 1. 0. 0. 0. 0. 1. 1. 1. 1. 0.
      1.42857134e-01 2.38095254e-01 2.38095254e-01 2.38095254e-01
      2.85714298e-01 2.85714298e-01 2.85714298e-01 2.85714298e-01
      2.85714298e-01 2.38095254e-01 1.90476209e-01 0. 4.76190522e-02
      4.76190522e-02 9.52380970e-02 4.76190522e-02 1.90476209e-01
      1.90476209e-01 2.38095254e-01 3.33333343e-01 5.71428597e-01
      6.19047642e-01 7.14285731e-01 7.61904776e-01 1. 5.71428597e-01
      3.80952388e-01 2.85714298e-01 0. 9.09090936e-02 1.81818187e-01
      2.27272734e-01 2.72727281e-01 2.72727281e-01 2.72727281e-01
      2.27272734e-01 2.27272734e-01 2.27272734e-01 2.72727281e-01
      5.45454562e-01 7.72727311e-01 1. 9.09090936e-01 1. 1.
      8.63636374e-01 6.81818187e-01 2.72727281e-01 2.27272734e-01
      1.81818187e-01 1.81818187e-01 2.72727281e-01 3.18181813e-01
      3.18181813e-01 1.36363640e-01 0.</_>
    <_>
      0. 0. 0. 1. 1. 1. 1. 0. 0. 0. 1. 1. 0. 1. 1. 0. 0. 0. 1. 1. 1. 1.
      0. 0. 0. 0. 0. 1. 1. 1. 0. 0. 0. 0. 0. 0. 1. 0. 0. 0. 0. 0. 0. 1.
      1. 0. 0. 0. 0. 0. 1. 1. 0. 0. 0. 0. 0. 1. 1. 0. 0. 0. 0. 0.
      8.33333433e-02 5.00000000e-01 7.50000000e-01 1. 5.00000000e-01
      1.66666687e-01 2.50000000e-01 3.33333373e-01 5.83333373e-01
      8.33333373e-01 8.33333373e-01 5.00000000e-01 8.33333433e-02
      8.33333433e-02 8.33333433e-02 8.33333433e-02 8.33333433e-02 0.
      8.33333433e-02 8.33333433e-02 1.66666687e-01 8.33333433e-02
      1.66666687e-01 1.66666687e-01 1.66666687e-01 1.66666687e-01
      8.33333433e-02 0. 0. 0. 0. 0. 0. 2.30769247e-01 3.07692319e-01
      8.46153855e-01 9.23076987e-01 1. 1. 1. 8.46153855e-01
      9.23076987e-01 9.23076987e-01 1. 1. 1. 8.46153855e-01
      7.69230783e-01 4.61538494e-01 3.07692319e-01 2.30769247e-01
      1.53846160e-01 0. 0. 0. 0.</_>
    <_>
      0. 0. 1. 1. 1. 0. 0. 0. 0. 1. 1. 0. 1. 1. 0. 0. 0. 0. 0. 0. 0. 1.
      0. 0. 0. 0. 0. 0. 1. 1. 0. 0. 0. 0. 0. 0. 1. 1. 0. 0. 0. 0. 0. 0.
      0. 0. 1. 0. 0. 0. 1. 1. 0. 0. 1. 0. 0. 0. 0. 0. 1. 1. 1. 0. 0.
      4.16666657e-01 7.50000000e-01 9.16666627e-01 8.33333373e-01
      5.00000000e-01 4.16666657e-01 2.50000030e-01 0. 0. 8.33333433e-02
      0. 8.33333433e-02 2.50000030e-01 4.16666657e-01 4.16666657e-01
      5.00000000e-01 8.33333433e-02 8.33333433e-02 8.33333433e-02
      1.66666657e-01 3.33333343e-01 4.16666657e-01 5.83333373e-01 1.
      8.33333373e-01 5.00000000e-01 2.50000030e-01 0. 0. 5.26315793e-02
      2.10526317e-01 2.63157904e-01 2.63157904e-01 2.63157904e-01
      2.63157904e-01 3.15789461e-01 4.73684222e-01 5.26315808e-01
      5.26315808e-01 4.73684222e-01 6.31578922e-01 6.31578922e-01
      8.42105269e-01 1. 1. 1. 9.47368443e-01 5.78947365e-01
      6.84210539e-01 5.78947365e-01 4.21052635e-01 3.68421048e-01 0. 0.
      0.</_>
    <_>
      0. 0. 0. 0. 0. 0. 0. 0. 0. 0. 1. 1. 1. 1. 0. 0. 0. 1. 1. 1. 0. 1.
      1. 0. 0. 0. 0. 0. 1. 1. 0. 0. 0. 0. 1. 1. 1. 0. 0. 0. 1. 1. 1. 1.
      1. 1. 1. 1. 1. 1. 1. 0. 0. 0. 0. 0. 0. 0. 0. 0. 0. 0. 0. 0. 0. 0.
      0. 0. 1.81818187e-01 6.36363626e-01 8.18181872e-01 8.63636374e-01
      5.45454562e-01 2.72727281e-01 2.27272734e-01 2.27272734e-01
      2.72727281e-01 2.72727281e-01 3.18181813e-01 3.18181813e-01
      3.18181813e-01 4.09090936e-01 9.09090936e-01 1. 1. 8.18181872e-01
      4.09090936e-01 2.72727281e-01 0. 0. 0. 0. 1.00000009e-01
      2.00000003e-01 3.00000012e-01 4.00000036e-01 7.00000048e-01
      7.00000048e-01 8.00000012e-01 9.00000036e-01 9.00000036e-01
      9.00000036e-01 7.00000048e-01 7.00000048e-01 9.00000036e-01
      8.00000012e-01 9.00000036e-01 1. 8.00000012e-01 1. 1. 1.
      8.00000012e-01 7.00000048e-01 4.00000036e-01 0. 0. 0. 0. 0.</_>
    <_>
      0. 0. 0. 0. 0. 0. 1. 0. 0. 0. 0. 0. 0. 1. 1. 0. 0. 0. 0. 0. 1. 1.
      0. 0. 0. 0. 0. 0. 1. 1. 0. 0. 0. 0. 0. 1. 1. 0. 0. 0. 0. 0. 1. 1.
      0. 0. 0. 0. 0. 0. 1. 1. 0. 0. 0. 0. 0. 0. 1. 0. 0. 0. 0. 0.
      2.50000000e-01 5.00000000e-01 5.00000000e-01 5.00000000e-01 1.
      7.50000000e-01 7.50000000e-01 7.50000000e-01 7.50000000e-01
      7.50000000e-01 7.50000000e-01 7.50000000e-01 7.50000000e-01
      7.50000000e-01 5.00000000e-01 5.00000000e-01 5.00000000e-01
      7.50000000e-01 5.00000000e-01 7.50000000e-01 5.00000000e-01
      7.50000000e-01 5.00000000e-01 2.50000000e-01 5.00000000e-01
      2.50000000e-01 0. 0. 0. 0. 0. 0. 0. 0. 0. 6.36363626e-01
      8.18181872e-01 1. 9.09090936e-01 8.18181872e-01 8.18181872e-01
      7.27272749e-01 7.27272749e-01 6.36363626e-01 8.18181872e-01
      9.09090936e-01 8.18181872e-01 8.18181872e-01 8.18181872e-01
      8.18181872e-01 5.45454562e-01 4.54545468e-01 2.72727281e-01 0. 0.
      0.</_>
    <_>
      0. 0. 0. 0. 0. 0. 1. 0. 0. 0. 0. 1. 1. 1. 1. 0. 0. 0. 1. 0. 1. 1.
      0. 0. 0. 0. 1. 1. 1. 0. 0. 0. 0. 0. 1. 1. 0. 0. 0. 0. 0. 1. 1. 0.
      1. 0. 0. 0. 0. 1. 1. 1. 0. 0. 0. 0. 1. 1. 1. 0. 0. 0. 0. 0. 0.
      1.00000009e-01 1.00000009e-01 9.00000036e-01 1. 9.00000036e-01
      7.00000048e-01 6.00000024e-01 6.00000024e-01 4.00000036e-01
      6.00000024e-01 5.00000000e-01 6.00000024e-01 6.00000024e-01
      5.00000000e-01 5.00000000e-01 7.00000048e-01 7.00000048e-01
      5.00000000e-01 5.00000000e-01 5.00000000e-01 5.00000000e-01
      6.00000024e-01 8.00000012e-01 7.00000048e-01 8.00000012e-01
      5.00000000e-01 1.00000009e-01 0. 5.55555560e-02 2.22222224e-01
      3.33333343e-01 4.44444448e-01 5.00000000e-01 5.55555582e-01
      8.33333313e-01 8.88888896e-01 7.77777791e-01 6.66666687e-01
      7.22222209e-01 7.22222209e-01 1. 7.22222209e-01 7.22222209e-01
      5.55555582e-01 3.88888896e-01 3.33333343e-01 2.77777791e-01
      2.22222224e-01 1.66666672e-01 1.66666672e-01 1.66666672e-01
      1.66666672e-01 1.11111112e-01 0. 0.</_>
    <_>
      0. 0. 0. 1. 1. 0. 0. 0. 0. 1. 1. 1. 1. 1. 1. 1. 0. 0. 0. 0. 0. 0.
      1. 1. 0. 0. 0. 0. 1. 1. 1. 1. 0. 0. 0. 1. 1. 1. 0. 0. 1. 0. 0. 0.
      1. 1. 0. 0. 1. 1. 1. 1. 1. 0. 0. 0. 0. 1. 1. 0. 0. 0. 0. 0. 0. 0.
      4.28571433e-01 5.71428597e-01 8.57142866e-01 1. 7.14285731e-01
      2.85714298e-01 2.38095239e-01 2.38095239e-01 2.85714298e-01
      4.28571433e-01 4.76190478e-01 6.19047642e-01 5.23809552e-01
      4.28571433e-01 3.80952388e-01 2.85714298e-01 2.85714298e-01
      3.33333343e-01 3.33333343e-01 4.28571433e-01 7.61904776e-01
      7.14285731e-01 5.71428597e-01 3.33333343e-01 0. 0. 7.69230872e-02
      2.30769262e-01 3.07692349e-01 7.69230872e-02 7.69230872e-02
      2.30769262e-01 3.07692349e-01 3.07692349e-01 3.07692349e-01
      3.07692349e-01 3.07692349e-01 5.38461566e-01 6.92307770e-01
      7.69230783e-01 7.69230783e-01 7.69230783e-01 1. 8.46153915e-01
      8.46153915e-01 6.92307770e-01 3.84615421e-01 3.84615421e-01
      3.84615421e-01 5.38461566e-01 3.84615421e-01 3.84615421e-01
      2.30769262e-01 1.49011612e-08</_>
    <_>
      0. 0. 0. 1. 1. 0. 0. 0. 0. 0. 1. 1. 1. 0. 0. 0. 0. 0. 1. 0. 1. 1.
      0. 0. 0. 0. 0. 0. 1. 1. 0. 0. 0. 0. 0. 0. 1. 1. 0. 0. 0. 0. 0. 0.
      1. 1. 0. 0. 0. 0. 0. 0. 1. 1. 0. 0. 0. 0. 0. 0. 1. 1. 0. 0.
      3.33333373e-01 5.00000000e-01 6.66666746e-01 6.66666746e-01
      8.33333373e-01 1. 8.33333373e-01 1. 8.33333373e-01 5.00000000e-01
      1.66666687e-01 1.66666687e-01 1.66666687e-01 1.66666687e-01
      1.66666687e-01 1.66666687e-01 1.66666687e-01 1.66666687e-01
      1.66666687e-01 0. 1.66666687e-01 1.66666687e-01 1.66666687e-01
      1.66666687e-01 3.33333373e-01 5.00000000e-01 1.66666687e-01 0. 0.
      0. 0. 0. 0. 0. 0. 7.14285746e-02 1.42857149e-01 1.78571433e-01
      1.78571433e-01 2.14285731e-01 2.14285731e-01 2.14285731e-01
      1.78571433e-01 8.92857194e-01 9.64285731e-01 1. 7.85714328e-01
      1.42857149e-01 3.57142873e-02 0. 0. 0. 0. 0. 0. 0.</_>
    <_>
      0. 1. 1. 0. 0. 0. 0. 0. 0. 1. 1. 0. 0. 0. 1. 0. 0. 1. 0. 0. 0. 1.
      1. 0. 0. 1. 0. 0. 1. 1. 1. 0. 0. 1. 1. 1. 0. 0. 1. 0. 0. 1. 0. 0.
      0. 0. 1. 0. 0. 0. 0. 0. 0. 0. 1. 0. 0. 0. 0. 0. 0. 0. 1. 0. 0.
      4.99999970e-02 1.50000006e-01 9.99999940e-02 2.50000000e-01
      4.00000006e-01 4.00000006e-01 4.50000018e-01 5.49999952e-01
      6.00000024e-01 7.00000048e-01 7.00000048e-01 7.99999952e-01 1.
      9.00000095e-01 7.99999952e-01 7.50000000e-01 6.49999976e-01
      3.49999994e-01 3.00000012e-01 9.99999940e-02 9.99999940e-02
      9.99999940e-02 9.99999940e-02 9.99999940e-02 9.99999940e-02
      4.99999970e-02 4.99999970e-02 0. 0. 4.58333343e-01 5.41666687e-01
      7.50000000e-01 7.91666687e-01 8.33333373e-01 6.25000000e-01
      5.00000000e-01 2.08333343e-01 2.08333343e-01 2.08333343e-01
      2.50000000e-01 2.08333343e-01 2.91666687e-01 2.50000000e-01
      2.50000000e-01 2.50000000e-01 2.50000000e-01 2.50000000e-01
      9.58333373e-01 1. 1. 1. 8.75000000e-01 3.75000000e-01 0. 0.</_>
    <_>
      0. 0. 0. 0. 0. 1. 1. 0. 0. 0. 0. 1. 1. 1. 1. 0. 0. 0. 1. 1. 0. 1.
      1. 0. 0. 1. 0. 0. 0. 1. 0. 0. 0. 0. 0. 0. 1. 0. 0. 0. 0. 0. 0. 0.
      1. 0. 0. 0. 0. 0. 0. 1. 1. 1. 0. 0. 0. 1. 1. 1. 1. 0. 0. 0.
      1.49011612e-08 1.53846160e-01 2.30769262e-01 3.84615421e-01
      6.92307770e-01 7.69230783e-01 7.69230783e-01 6.92307770e-01
      6.15384638e-01 4.61538494e-01 4.61538494e-01 3.84615421e-01
      3.07692349e-01 3.07692349e-01 2.30769262e-01 1.49011612e-08
      7.69230872e-02 1.49011612e-08 1.49011612e-08 1.49011612e-08
      7.69230872e-02 7.69230872e-02 1.53846160e-01 3.84615421e-01
      6.92307770e-01 1. 7.69230783e-01 4.61538494e-01 0. 0.
      1.17647059e-01 2.94117659e-01 3.52941185e-01 4.11764711e-01
      3.52941185e-01 4.11764711e-01 4.11764711e-01 4.11764711e-01
      4.11764711e-01 3.52941185e-01 4.70588237e-01 7.05882370e-01
      8.23529422e-01 1. 1. 8.23529422e-01 8.82352948e-01 9.41176474e-01
      8.82352948e-01 5.88235319e-01 5.29411793e-01 2.35294119e-01
      1.76470593e-01 1.17647059e-01 0. 0.</_>
    <_>
      0. 0. 1. 1. 1. 0. 0. 0. 0. 1. 0. 0. 1. 0. 0. 0. 0. 1. 0. 0. 1. 0.
      0. 0. 0. 1. 1. 1. 0. 0. 0. 0. 0. 0. 1. 1. 0. 0. 0. 0. 0. 0. 1. 1.
      0. 0. 0. 0. 0. 0. 1. 1. 0. 0. 0. 0. 0. 0. 1. 0. 0. 0. 0. 0.
      1.25000000e-01 5.00000000e-01 1. 7.50000000e-01 7.50000000e-01
      5.00000000e-01 5.00000000e-01 5.00000000e-01 5.00000000e-01
      5.00000000e-01 6.25000000e-01 1. 7.50000000e-01 6.25000000e-01
      1.25000000e-01 1.25000000e-01 0. 0. 0. 1.25000000e-01
      1.25000000e-01 1.25000000e-01 0. 0. 0. 0. 0. 0. 0. 0. 0.
      4.76190485e-02 3.80952388e-01 4.76190478e-01 5.71428597e-01
      5.71428597e-01 7.61904776e-01 1. 9.52380955e-01 7.61904776e-01
      7.14285731e-01 5.71428597e-01 5.71428597e-01 5.23809552e-01
      4.28571433e-01 3.33333343e-01 1.42857149e-01 0. 0. 0. 0. 0.
      4.76190485e-02 0. 0. 0.</_>
    <_>
      0. 1. 1. 1. 0. 0. 0. 0. 0. 0. 0. 1. 0. 0. 0. 0. 0. 0. 1. 1. 0. 0.
      0. 0. 0. 0. 1. 1. 0. 0. 0. 0. 0. 0. 0. 0. 1. 1. 0. 0. 0. 0. 0. 0.
      0. 1. 1. 0. 0. 0. 0. 0. 0. 0. 1. 0. 0. 0. 0. 0. 0. 1. 1. 0.
      6.25000000e-01 8.75000000e-01 1. 1.25000000e-01 0. 0.
      1.25000000e-01 2.50000000e-01 2.50000000e-01 1.25000000e-01 0.
      2.50000000e-01 3.75000000e-01 5.00000000e-01 3.75000000e-01
      3.75000000e-01 3.75000000e-01 2.50000000e-01 1.25000000e-01
      1.25000000e-01 1.25000000e-01 1.25000000e-01 0. 0. 6.25000000e-01
      7.50000000e-01 5.00000000e-01 2.50000000e-01 0. 0. 0.
      2.72727281e-01 2.72727281e-01 2.72727281e-01 2.72727281e-01
      6.36363626e-01 7.27272749e-01 9.09090936e-01 8.18181872e-01
      9.09090936e-01 1. 8.18181872e-01 6.36363626e-01 4.54545468e-01
      4.54545468e-01 5.45454562e-01 6.36363626e-01 6.36363626e-01
      8.18181872e-01 1. 8.18181872e-01 7.27272749e-01 1.81818187e-01 0.
      0. 0.</_>
    <_>
      0. 0. 0. 0. 1. 0. 0. 0. 0. 0. 0. 0. 1. 0. 0. 0. 0. 0. 0. 0. 1. 0.
      0. 0. 0. 0. 0. 1. 1. 0. 0. 0. 0. 0. 0. 1. 1. 0. 0. 0. 0. 0. 0. 1.
      0. 0. 0. 0. 0. 0. 0. 1. 0. 0. 0. 0. 0. 0. 0. 1. 0. 0. 0. 0. 0. 0.
      0. 0. 0. 0. 0. 0. 0. 5.00000000e-01 1. 1. 1. 5.00000000e-01
      5.00000000e-01 5.00000000e-01 5.00000000e-01 5.00000000e-01
      5.00000000e-01 5.00000000e-01 5.00000000e-01 5.00000000e-01
      5.00000000e-01 0. 0. 0. 0. 0. 0. 0. 0. 0. 0. 0. 0. 0. 0. 0.
      4.34782624e-01 5.21739125e-01 7.82608688e-01 8.26086998e-01 1.
      7.82608688e-01 6.95652187e-01 5.65217376e-01 0. 0. 0. 0. 0. 0. 0.
      0. 0. 0.</_>
    <_>
      0. 0. 0. 0. 1. 1. 1. 0. 0. 0. 0. 1. 0. 0. 1. 0. 0. 0. 1. 0. 0. 1.
      1. 0. 0. 1. 1. 0. 0. 1. 0. 0. 0. 1. 0. 0. 0. 1. 1. 0. 0. 1. 0. 0.
      0. 0. 1. 0. 0. 1. 1. 0. 0. 1. 0. 0. 0. 0. 1. 1. 1. 0. 0. 0.
      5.96046448e-08 4.28571522e-01 7.14285791e-01 7.14285791e-01
      2.85714328e-01 2.85714328e-01 2.85714328e-01 1.42857134e-01
      4.28571522e-01 2.85714328e-01 1.42857134e-01 5.96046448e-08
      2.85714328e-01 2.85714328e-01 1.42857134e-01 2.85714328e-01
      1.42857134e-01 5.96046448e-08 5.96046448e-08 5.96046448e-08
      1.42857134e-01 5.96046448e-08 1.42857134e-01 2.85714328e-01 1.
      8.57142985e-01 4.28571522e-01 5.96046448e-08 0. 0. 0. 0.
      3.49999994e-01 6.50000036e-01 7.50000000e-01 7.50000000e-01
      6.00000024e-01 5.00000000e-01 4.50000018e-01 4.50000018e-01
      3.49999994e-01 3.49999994e-01 3.49999994e-01 3.49999994e-01
      3.49999994e-01 5.00000000e-01 6.00000024e-01 6.99999988e-01
      8.50000024e-01 1. 8.00000012e-01 4.00000006e-01 0. 0. 0. 0.</_>
    <_>
      0. 0. 1. 1. 1. 0. 0. 0. 0. 0. 1. 1. 1. 0. 0. 0. 0. 0. 0. 1. 1. 1.
      0. 0. 0. 0. 1. 1. 1. 0. 0. 0. 0. 0. 1. 1. 0. 0. 0. 0. 0. 0. 1. 1.
      0. 0. 0. 0. 0. 0. 0. 1. 0. 0. 0. 0. 0. 0. 0. 1. 0. 0. 0. 0.
      1.42857164e-01 5.71428537e-01 5.71428537e-01 4.28571492e-01
      4.28571492e-01 4.28571492e-01 5.71428537e-01 8.57142925e-01 1.
      5.71428537e-01 4.28571492e-01 2.85714298e-01 4.28571492e-01
      5.71428537e-01 5.71428537e-01 4.28571492e-01 4.28571492e-01
      4.28571492e-01 5.71428537e-01 5.71428537e-01 5.71428537e-01
      4.28571492e-01 2.98023224e-08 2.98023224e-08 1.42857164e-01
      1.42857164e-01 2.85714298e-01 1.42857164e-01 0. 0. 0. 0. 0. 0.
      1.25000000e-01 2.91666687e-01 5.00000000e-01 7.91666687e-01
      6.25000000e-01 6.66666687e-01 1. 8.75000000e-01 9.58333373e-01
      3.75000000e-01 3.33333343e-01 1.25000000e-01 1.25000000e-01
      1.25000000e-01 8.33333358e-02 0. 0. 0. 0. 0. 0. 0.</_>
    <_>
      0. 0. 0. 1. 0. 0. 0. 0. 0. 0. 0. 1. 0. 0. 0. 0. 0. 0. 1. 0. 0. 0.
      0. 0. 0. 1. 1. 0. 0. 0. 0. 0. 0. 1. 0. 0. 0. 0. 1. 0. 1. 1. 0. 0.
      0. 1. 1. 1. 0. 1. 0. 0. 1. 1. 1. 0. 0. 1. 1. 1. 1. 1. 0. 0. 0. 0.
      5.26315719e-02 1.05263159e-01 1.05263159e-01 1.05263159e-01
      1.57894745e-01 1.05263159e-01 1.57894745e-01 1.57894745e-01
      1.05263159e-01 1.05263159e-01 1.05263159e-01 1.05263159e-01
      1.57894745e-01 2.10526302e-01 4.73684192e-01 5.78947365e-01
      6.31578922e-01 6.84210539e-01 5.78947365e-01 5.78947365e-01
      6.31578922e-01 6.31578922e-01 9.99999940e-01 8.94736826e-01
      7.36842096e-01 5.26315749e-01 0. 2.00000018e-01 4.66666698e-01
      7.33333349e-01 9.33333397e-01 1. 9.33333397e-01 7.33333349e-01
      6.66666687e-01 6.66666687e-01 7.33333349e-01 7.33333349e-01
      7.33333349e-01 6.00000024e-01 2.66666681e-01 4.66666698e-01
      5.33333361e-01 6.00000024e-01 6.66666687e-01 7.33333349e-01
      5.33333361e-01 6.00000024e-01 7.33333349e-01 6.66666687e-01
      4.66666698e-01 4.00000036e-01 2.00000018e-01 0.</_>
    <_>
      0. 0. 1. 1. 1. 1. 0. 0. 0. 1. 1. 1. 1. 1. 0. 0. 0. 0. 1. 0. 0. 0.
      0. 0. 0. 1. 1. 1. 1. 1. 1. 0. 0. 1. 1. 1. 0. 1. 1. 0. 0. 0. 0. 0.
      0. 1. 1. 0. 0. 0. 0. 0. 1. 1. 0. 0. 0. 0. 1. 1. 1. 0. 0. 0.
      5.62500000e-01 7.50000000e-01 8.12500000e-01 8.75000000e-01
      8.75000000e-01 6.87500000e-01 6.25000000e-02 0. 6.25000000e-02
      2.50000000e-01 5.00000000e-01 7.50000000e-01 1. 9.37500000e-01
      8.75000000e-01 6.87500000e-01 5.62500000e-01 3.12500000e-01
      2.50000000e-01 6.25000000e-02 1.25000000e-01 1.25000000e-01
      1.87500000e-01 4.37500000e-01 5.62500000e-01 4.37500000e-01
      3.75000000e-01 1.25000000e-01 0. 0. 0. 0. 2.60869563e-01
      4.78260875e-01 7.39130437e-01 1. 1. 1. 8.26086998e-01
      6.95652187e-01 6.95652187e-01 6.52173936e-01 7.39130437e-01
      6.95652187e-01 7.82608688e-01 7.39130437e-01 7.82608688e-01
      9.13043499e-01 7.39130437e-01 6.95652187e-01 4.34782624e-01
      2.17391312e-01 0. 0. 0. 0.</_>
    <_>
      0. 1. 1. 1. 1. 1. 1. 0. 1. 1. 1. 0. 0. 0. 1. 0. 1. 0. 0. 0. 0. 0.
      0. 1. 1. 0. 0. 0. 0. 0. 0. 1. 1. 0. 0. 0. 0. 0. 0. 1. 1. 0. 0. 0.
      0. 0. 0. 1. 0. 1. 0. 0. 0. 0. 1. 0. 0. 0. 1. 1. 1. 1. 0. 0.
      4.00000006e-01 9.00000095e-01 1. 9.00000095e-01 7.00000048e-01
      6.00000024e-01 2.99999982e-01 2.00000018e-01 9.99999940e-02 0. 0.
      0. 0. 0. 0. 0. 0. 2.00000018e-01 2.00000018e-01 0. 2.00000018e-01
      9.99999940e-02 2.00000018e-01 2.00000018e-01 4.00000006e-01
      9.00000095e-01 9.00000095e-01 5.00000000e-01 0. 7.64705896e-01 1.
      7.05882370e-01 4.70588237e-01 4.70588237e-01 3.52941185e-01
      3.52941185e-01 4.11764711e-01 3.52941185e-01 4.70588237e-01
      3.52941185e-01 3.52941185e-01 3.52941185e-01 2.94117659e-01
      2.35294119e-01 2.35294119e-01 2.35294119e-01 2.94117659e-01
      2.94117659e-01 3.52941185e-01 3.52941185e-01 4.70588237e-01
      5.88235319e-01 6.47058845e-01 8.23529422e-01 5.88235319e-01 0.</_>
    <_>
      0. 0. 1. 1. 1. 0. 0. 0. 0. 1. 1. 0. 0. 0. 0. 0. 0. 1. 1. 0. 1. 0.
      0. 0. 0. 0. 1. 1. 1. 0. 0. 0. 0. 0. 0. 1. 1. 0. 0. 0. 0. 0. 0. 1.
      0. 0. 0. 0. 0. 0. 1. 1. 0. 0. 0. 0. 0. 0. 1. 1. 0. 0. 0. 0.
      4.44444448e-01 6.66666627e-01 6.66666627e-01 3.33333343e-01
      3.33333343e-01 3.33333343e-01 4.44444448e-01 4.44444448e-01
      4.44444448e-01 5.55555582e-01 6.66666627e-01 1. 7.77777791e-01
      1.11111104e-01 1.11111104e-01 1.11111104e-01 1.11111104e-01
      1.11111104e-01 1.11111104e-01 1.11111104e-01 1.11111104e-01
      1.11111104e-01 0. 0. 1.11111104e-01 1.11111104e-01 1.11111104e-01
      0. 0. 0. 0. 0. 2.94117659e-01 4.70588237e-01 5.29411793e-01
      6.47058845e-01 5.88235319e-01 7.64705896e-01 9.41176474e-01 1.
      8.23529422e-01 7.64705896e-01 6.47058845e-01 6.47058845e-01
      5.88235319e-01 5.29411793e-01 1.76470593e-01 0. 0. 0. 0. 0. 0. 0.
      0. 0.</_>
    <_>
      0. 0. 0. 0. 0. 0. 0. 0. 1. 1. 1. 1. 1. 0. 0. 0. 1. 0. 0. 1. 1. 1.
      1. 0. 0. 0. 0. 1. 1. 1. 1. 0. 0. 0. 0. 1. 1. 1. 1. 1. 0. 0. 0. 1.
      0. 0. 1. 1. 0. 0. 0. 1. 1. 1. 1. 1. 0. 0. 0. 0. 0. 0. 0. 0. 0. 0.
      0. 0. 9.52380970e-02 5.71428597e-01 9.04761910e-01 1.
      6.19047642e-01 2.85714298e-01 2.38095239e-01 3.33333343e-01
      5.23809552e-01 5.71428597e-01 6.19047642e-01 4.76190478e-01
      2.38095239e-01 2.38095239e-01 1.90476194e-01 2.85714298e-01
      5.71428597e-01 8.09523821e-01 7.14285731e-01 5.23809552e-01 0. 0.
      0. 0. 0. 0. 9.09090936e-02 0. 0. 0. 0. 9.09090936e-02
      9.09090936e-02 0. 2.72727281e-01 6.36363626e-01 6.36363626e-01
      7.27272749e-01 5.45454621e-01 5.45454621e-01 6.36363626e-01
      6.36363626e-01 7.27272749e-01 8.18181872e-01 9.09090996e-01
      9.09090996e-01 1. 8.18181872e-01 4.54545468e-01 3.63636345e-01
      1.81818187e-01 0.</_>
    <_>
      0. 0. 1. 1. 0. 0. 0. 0. 0. 0. 1. 1. 0. 0. 0. 0. 0. 0. 1. 1. 0. 0.
      0. 0. 0. 1. 1. 0. 0. 0. 0. 0. 0. 1. 1. 0. 0. 0. 0. 0. 0. 1. 1. 0.
      0. 0. 0. 0. 0. 1. 1. 0. 0. 0. 0. 0. 0. 1. 0. 0. 0. 0. 0. 0. 0.
      2.50000000e-01 2.50000000e-01 5.00000000e-01 7.50000000e-01
      7.50000000e-01 1. 1. 7.50000000e-01 7.50000000e-01 7.50000000e-01
      7.50000000e-01 7.50000000e-01 7.50000000e-01 7.50000000e-01
      7.50000000e-01 5.00000000e-01 5.00000000e-01 7.50000000e-01
      7.50000000e-01 5.00000000e-01 7.50000000e-01 5.00000000e-01
      5.00000000e-01 7.50000000e-01 5.00000000e-01 5.00000000e-01
      5.00000000e-01 0. 0. 0. 2.17391312e-01 4.34782624e-01
      7.39130437e-01 7.82608688e-01 9.56521749e-01 1. 9.13043499e-01
      6.95652187e-01 4.34782624e-01 3.04347843e-01 1.73913047e-01 0. 0.
      0. 0. 0. 0. 0. 0. 0. 0. 4.34782617e-02 0. 0. 0.</_>
    <_>
      0. 0. 0. 0. 0. 1. 0. 0. 0. 0. 0. 0. 0. 1. 0. 0. 0. 0. 0. 0. 1. 0.
      0. 0. 0. 0. 0. 1. 1. 0. 0. 0. 0. 0. 1. 1. 1. 0. 0. 0. 0. 0. 1. 0.
      1. 0. 0. 0. 0. 0. 1. 0. 1. 0. 0. 0. 0. 0. 1. 1. 0. 0. 0. 0. 0. 0.
      1.66666687e-01 1.66666687e-01 1.66666687e-01 1.66666687e-01
      1.66666687e-01 0. 1.66666687e-01 1.66666687e-01 1.66666687e-01
      1.66666687e-01 0. 1.66666687e-01 5.00000000e-01 6.66666746e-01
      8.33333373e-01 6.66666746e-01 6.66666746e-01 6.66666746e-01
      6.66666746e-01 5.00000000e-01 8.33333373e-01 6.66666746e-01 1.
      8.33333373e-01 6.66666746e-01 3.33333373e-01 0. 0. 0. 0. 0. 0.
      2.94117659e-01 5.29411793e-01 6.47058845e-01 7.05882370e-01
      6.47058845e-01 5.88235319e-01 5.88235319e-01 7.05882370e-01 1.
      9.41176474e-01 7.64705896e-01 3.52941185e-01 2.94117659e-01
      3.52941185e-01 2.94117659e-01 1.76470593e-01 0. 0. 0. 0. 0. 0.</_>
    <_>
      0. 0. 0. 0. 0. 0. 0. 0. 0. 0. 0. 0. 0. 1. 1. 1. 0. 0. 0. 1. 1. 0.
      0. 0. 0. 0. 0. 1. 1. 1. 0. 0. 0. 0. 0. 0. 0. 1. 0. 0. 1. 1. 0. 0.
      0. 1. 0. 0. 0. 0. 1. 1. 1. 1. 0. 0. 0. 0. 0. 0. 0. 0. 0. 0. 0. 0.
      0. 2.66666681e-01 6.00000024e-01 7.33333349e-01 1. 8.66666734e-01
      3.33333343e-01 3.33333343e-01 4.00000036e-01 6.66666687e-01
      7.33333349e-01 7.33333349e-01 2.66666681e-01 2.00000018e-01
      4.66666698e-01 4.00000036e-01 5.33333361e-01 6.66666687e-01
      6.66666687e-01 1. 1. 7.33333349e-01 4.66666698e-01 0. 0. 0. 0.
      1.42857164e-01 2.14285731e-01 2.14285731e-01 2.14285731e-01
      2.14285731e-01 2.14285731e-01 1.42857164e-01 1.42857164e-01
      3.57142895e-01 5.71428597e-01 5.71428597e-01 6.42857134e-01
      7.85714328e-01 7.85714328e-01 6.42857134e-01 6.42857134e-01
      7.85714328e-01 8.57142866e-01 1.00000012e+00 8.57142866e-01
      5.71428597e-01 2.85714298e-01 2.14285731e-01 2.85714298e-01
      2.14285731e-01 2.14285731e-01 2.14285731e-01</_>
    <_>
      0. 0. 0. 0. 0. 0. 0. 0. 0. 0. 1. 1. 1. 1. 1. 0. 0. 1. 0. 1. 0. 0.
      1. 1. 1. 0. 0. 0. 0. 0. 0. 1. 1. 0. 0. 0. 0. 0. 1. 1. 1. 0. 0. 0.
      1. 1. 0. 0. 0. 0. 1. 1. 0. 0. 0. 0. 0. 0. 0. 0. 0. 0. 0. 0. 0. 0.
      0. 0. 3.33333343e-01 7.77777791e-01 1. 6.66666687e-01
      6.11111104e-01 5.55555582e-01 3.33333343e-01 3.88888896e-01
      2.77777791e-01 2.77777791e-01 3.33333343e-01 3.33333343e-01
      3.33333343e-01 3.88888896e-01 4.44444448e-01 6.11111104e-01
      6.11111104e-01 6.11111104e-01 3.88888896e-01 0. 0. 0. 0. 0.
      7.50000000e-01 1. 7.50000000e-01 5.00000000e-01 5.00000000e-01
      3.75000000e-01 3.75000000e-01 3.75000000e-01 2.50000000e-01
      2.50000000e-01 0. 5.00000000e-01 7.50000000e-01 6.25000000e-01
      5.00000000e-01 3.75000000e-01 3.75000000e-01 3.75000000e-01
      3.75000000e-01 3.75000000e-01 3.75000000e-01 3.75000000e-01
      5.00000000e-01 5.00000000e-01 6.25000000e-01 8.75000000e-01
      7.50000000e-01 5.00000000e-01</_>
    <_>
      0. 0. 0. 1. 1. 0. 0. 0. 0. 0. 0. 0. 1. 1. 0. 0. 0. 0. 0. 1. 1. 1.
      0. 0. 0. 0. 1. 1. 1. 0. 0. 0. 0. 1. 1. 0. 0. 0. 0. 0. 1. 1. 0. 0.
      0. 0. 0. 0. 1. 1. 0. 1. 1. 1. 0. 0. 0. 1. 1. 1. 1. 1. 1. 1. 0.
      1.36363640e-01 2.27272734e-01 2.27272734e-01 1.81818187e-01
      1.36363640e-01 2.27272734e-01 1.81818187e-01 2.72727281e-01
      2.72727281e-01 2.27272734e-01 3.18181813e-01 3.18181813e-01
      2.72727281e-01 2.27272734e-01 2.27272734e-01 1.81818187e-01
      1.36363640e-01 1.36363640e-01 1.36363640e-01 1.36363640e-01
      9.09090936e-02 2.72727281e-01 4.54545468e-01 9.09090936e-01 1.
      8.63636374e-01 4.09090936e-01 0. 7.14285746e-02 4.28571463e-01
      5.71428597e-01 5.71428597e-01 5.00000000e-01 5.00000000e-01
      5.71428597e-01 5.71428597e-01 7.14285731e-01 7.14285731e-01
      5.00000000e-01 7.14285731e-01 7.14285731e-01 7.14285731e-01
      8.57142925e-01 1. 8.57142925e-01 6.42857194e-01 2.85714298e-01
      2.14285731e-01 2.14285731e-01 2.85714298e-01 2.85714298e-01
      2.14285731e-01 1.42857149e-01 0. 0.</_>
    <_>
      0. 0. 0. 1. 1. 0. 0. 0. 0. 0. 1. 0. 0. 0. 0. 0. 0. 1. 0. 0. 0. 1.
      0. 0. 0. 1. 1. 0. 0. 1. 0. 0. 0. 0. 1. 1. 1. 1. 0. 0. 0. 0. 0. 0.
      0. 1. 1. 0. 0. 0. 0. 0. 0. 0. 1. 0. 0. 0. 0. 0. 0. 0. 1. 0.
      1.81818187e-01 3.63636345e-01 3.63636345e-01 2.72727281e-01
      2.72727281e-01 3.63636345e-01 2.72727281e-01 2.72727281e-01
      2.72727281e-01 2.72727281e-01 3.63636345e-01 4.54545468e-01
      4.54545468e-01 4.54545468e-01 6.36363626e-01 9.09090996e-01 1.
      6.36363626e-01 1.81818187e-01 0. 0. 0. 9.09090936e-02 0. 0. 0. 0.
      0. 0. 0. 0. 0. 3.33333343e-01 5.33333361e-01 7.33333349e-01
      6.00000024e-01 5.33333361e-01 4.66666698e-01 4.66666698e-01
      3.33333343e-01 4.00000036e-01 3.33333343e-01 3.33333343e-01
      4.66666698e-01 8.00000072e-01 1. 8.00000072e-01 7.33333349e-01
      8.66666734e-01 8.00000072e-01 6.00000024e-01 4.00000036e-01 0. 0.
      0. 0.</_>
    <_>
      0. 0. 1. 1. 1. 1. 1. 0. 0. 1. 1. 0. 1. 0. 0. 0. 0. 1. 1. 0. 0. 0.
      0. 0. 0. 0. 1. 1. 0. 0. 0. 0. 0. 0. 0. 1. 1. 0. 0. 0. 0. 0. 0. 0.
      1. 1. 0. 0. 0. 1. 0. 0. 0. 1. 1. 0. 0. 1. 1. 1. 1. 1. 1. 0.
      1.76470593e-01 6.47058845e-01 8.23529482e-01 6.47058845e-01
      2.94117689e-01 1.17647067e-01 0. 5.88235408e-02 5.88235408e-02
      5.88235408e-02 5.88235408e-02 5.88235408e-02 5.88235408e-02
      5.88235408e-02 1.17647067e-01 1.17647067e-01 5.88235408e-02
      5.88235408e-02 0. 1.17647067e-01 5.88235408e-02 2.35294119e-01
      2.94117689e-01 4.70588267e-01 1. 1. 8.23529482e-01 2.35294119e-01
      0. 0. 6.66666701e-02 2.66666681e-01 6.00000024e-01 8.00000072e-01
      9.33333397e-01 9.33333397e-01 8.66666734e-01 7.33333349e-01
      8.66666734e-01 8.66666734e-01 8.66666734e-01 8.00000072e-01
      8.66666734e-01 1. 9.33333397e-01 8.00000072e-01 7.33333349e-01
      8.00000072e-01 8.00000072e-01 5.33333361e-01 5.33333361e-01
      4.00000036e-01 1.33333340e-01 6.66666701e-02 0. 0.</_>
    <_>
      0. 0. 0. 1. 1. 1. 0. 0. 0. 0. 1. 0. 0. 1. 0. 0. 0. 0. 1. 0. 1. 1.
      0. 0. 0. 0. 1. 1. 1. 1. 0. 0. 0. 0. 0. 0. 1. 0. 0. 0. 0. 0. 0. 0.
      1. 0. 0. 0. 0. 0. 0. 1. 1. 0. 0. 0. 0. 0. 0. 1. 0. 0. 0. 0. 0.
      4.44444448e-01 6.66666627e-01 6.66666627e-01 6.66666627e-01
      6.66666627e-01 4.44444448e-01 3.33333343e-01 4.44444448e-01
      3.33333343e-01 7.77777791e-01 1. 7.77777791e-01 0. 0.
      1.11111104e-01 0. 0. 1.11111104e-01 1.11111104e-01 0.
      1.11111104e-01 0. 1.11111104e-01 2.22222239e-01 1.11111104e-01
      1.11111104e-01 0. 0. 0. 0. 0. 0. 0. 5.00000007e-02 3.49999994e-01
      4.50000018e-01 3.49999994e-01 3.49999994e-01 4.50000018e-01
      5.00000000e-01 6.00000024e-01 6.50000036e-01 8.00000012e-01
      8.50000024e-01 1. 7.50000000e-01 5.00000000e-01 2.00000003e-01
      5.00000007e-02 0. 0. 0. 0. 0. 0.</_>
    <_>
      0. 0. 0. 0. 0. 0. 0. 0. 0. 1. 1. 1. 1. 0. 0. 0. 1. 1. 0. 0. 1. 0.
      0. 0. 0. 0. 0. 0. 1. 0. 0. 0. 0. 0. 0. 1. 1. 1. 1. 1. 0. 0. 1. 1.
      1. 0. 0. 0. 0. 0. 1. 1. 0. 0. 0. 0. 0. 0. 0. 0. 0. 0. 0. 0. 0. 0.
      0. 2.77777791e-01 5.00000000e-01 6.66666687e-01 7.77777791e-01
      5.55555582e-01 4.44444448e-01 3.88888896e-01 3.33333343e-01
      3.33333343e-01 2.22222224e-01 2.22222224e-01 4.44444448e-01
      8.88888896e-01 1. 6.66666687e-01 4.44444448e-01 3.33333343e-01
      3.33333343e-01 3.88888896e-01 3.33333343e-01 2.77777791e-01
      5.55555560e-02 0. 0. 0. 1.33333355e-01 2.00000018e-01
      2.66666681e-01 2.00000018e-01 1.33333355e-01 1.33333355e-01
      1.33333355e-01 2.00000018e-01 5.33333361e-01 6.00000024e-01
      8.00000072e-01 6.66666687e-01 7.33333409e-01 8.00000072e-01 1. 1.
      8.00000072e-01 6.00000024e-01 1.33333355e-01 1.33333355e-01
      1.33333355e-01 6.66666701e-02 1.33333355e-01 1.33333355e-01
      1.33333355e-01 1.33333355e-01 6.66666701e-02 0.</_>
    <_>
      0. 0. 1. 0. 0. 0. 1. 1. 0. 1. 1. 0. 0. 0. 1. 0. 1. 1. 0. 1. 1. 1.
      1. 0. 1. 1. 1. 1. 0. 1. 0. 0. 0. 0. 0. 0. 1. 1. 0. 0. 0. 0. 0. 0.
      1. 0. 0. 0. 0. 0. 0. 1. 1. 0. 0. 0. 0. 0. 0. 1. 1. 0. 0. 0.
      1.17647059e-01 1.76470608e-01 3.52941185e-01 4.11764741e-01
      4.70588267e-01 5.29411793e-01 4.70588267e-01 4.70588267e-01
      5.88235319e-01 9.41176534e-01 1. 1. 8.23529422e-01 4.70588267e-01
      1.17647059e-01 1.76470608e-01 1.17647059e-01 1.17647059e-01
      1.76470608e-01 1.17647059e-01 1.76470608e-01 1.76470608e-01
      1.17647059e-01 1.76470608e-01 1.76470608e-01 1.76470608e-01
      1.17647059e-01 0. 7.14285746e-02 2.85714298e-01 4.28571463e-01
      5.00000000e-01 5.71428597e-01 6.42857194e-01 5.71428597e-01
      5.71428597e-01 5.00000000e-01 5.71428597e-01 4.28571463e-01
      2.85714298e-01 5.00000000e-01 7.85714328e-01 8.57142925e-01
      8.57142925e-01 9.28571463e-01 1. 7.85714328e-01 6.42857194e-01
      8.57142925e-01 7.85714328e-01 6.42857194e-01 7.14285731e-01
      5.71428597e-01 4.28571463e-01 7.14285746e-02 0.</_>
    <_>
      0. 0. 0. 0. 0. 0. 0. 0. 0. 0. 0. 0. 1. 1. 1. 1. 0. 0. 0. 1. 1. 0.
      0. 0. 0. 0. 0. 1. 1. 1. 0. 0. 1. 0. 0. 0. 0. 0. 1. 0. 0. 1. 0. 0.
      0. 1. 1. 0. 0. 0. 1. 1. 1. 1. 0. 0. 0. 0. 0. 0. 0. 0. 0. 0. 0. 0.
      0. 4.70588237e-01 7.64705896e-01 7.64705896e-01 6.47058845e-01
      4.70588237e-01 3.52941185e-01 3.52941185e-01 4.70588237e-01
      6.47058845e-01 7.05882370e-01 7.05882370e-01 2.35294119e-01
      4.11764711e-01 3.52941185e-01 4.70588237e-01 5.29411793e-01
      4.70588237e-01 6.47058845e-01 1. 8.23529422e-01 5.88235319e-01
      2.35294119e-01 0. 0. 0. 0. 9.09090936e-02 9.09090936e-02 0.
      9.09090936e-02 9.09090936e-02 9.09090936e-02 0. 9.09090936e-02
      9.09090936e-02 4.54545468e-01 5.45454621e-01 7.27272749e-01
      7.27272749e-01 8.18181872e-01 1. 8.18181872e-01 8.18181872e-01
      7.27272749e-01 9.09090996e-01 1. 9.09090996e-01 5.45454621e-01
      3.63636345e-01 9.09090936e-02 0. 0. 0.</_>
    <_>
      0. 0. 0. 0. 0. 1. 1. 0. 0. 0. 0. 0. 0. 1. 0. 0. 0. 0. 0. 0. 1. 0.
      0. 0. 0. 0. 0. 1. 1. 0. 0. 0. 0. 0. 0. 1. 0. 0. 0. 0. 0. 0. 1. 1.
      1. 1. 1. 0. 0. 1. 1. 0. 0. 1. 1. 0. 0. 1. 1. 0. 1. 1. 0. 0. 0.
      7.14285821e-02 1.42857149e-01 2.14285716e-01 1.42857149e-01
      1.42857149e-01 1.42857149e-01 1.42857149e-01 1.42857149e-01
      1.42857149e-01 1.42857149e-01 2.14285716e-01 2.14285716e-01
      1.42857149e-01 1.42857149e-01 1.42857149e-01 1.42857149e-01
      7.85714328e-01 8.57142866e-01 1. 4.28571463e-01 4.28571463e-01
      4.28571463e-01 4.28571463e-01 3.57142866e-01 4.28571463e-01
      4.28571463e-01 5.00000060e-01 0. 0. 0. 0. 7.14285746e-02
      3.57142866e-01 5.00000000e-01 6.42857194e-01 7.14285731e-01
      5.71428597e-01 5.00000000e-01 5.71428597e-01 6.42857194e-01
      6.42857194e-01 7.14285731e-01 7.85714328e-01 8.57142925e-01
      8.57142925e-01 8.57142925e-01 1. 9.28571463e-01 7.14285731e-01
      5.71428597e-01 0. 0. 0. 0. 0.</_>
    <_>
      0. 0. 0. 0. 1. 1. 0. 0. 0. 0. 0. 1. 1. 0. 0. 0. 0. 0. 0. 1. 1. 0.
      0. 0. 0. 0. 0. 0. 1. 0. 0. 0. 0. 0. 0. 0. 0. 1. 0. 0. 0. 0. 1. 0.
      0. 1. 1. 0. 0. 1. 1. 0. 1. 1. 1. 0. 0. 0. 1. 1. 1. 1. 0. 0.
      2.50000030e-01 5.00000000e-01 5.00000000e-01 5.00000000e-01
      8.33333433e-02 0. 0. 0. 0. 0. 0. 0. 8.33333433e-02 8.33333433e-02
      8.33333433e-02 1.66666657e-01 1.66666657e-01 8.33333433e-02
      2.50000030e-01 3.33333343e-01 4.16666657e-01 4.16666657e-01
      5.83333373e-01 6.66666627e-01 1. 8.33333373e-01 5.00000000e-01
      1.66666657e-01 0. 0. 0. 0. 1.00000001e-01 2.50000000e-01
      3.49999994e-01 4.00000006e-01 4.00000006e-01 2.00000003e-01
      2.00000003e-01 2.00000003e-01 5.50000012e-01 8.00000012e-01
      9.00000036e-01 1. 7.50000000e-01 6.99999988e-01 6.99999988e-01
      8.00000012e-01 6.99999988e-01 6.00000024e-01 4.50000018e-01
      1.50000006e-01 0. 0. 0. 0.</_>
    <_>
      0. 0. 1. 1. 1. 1. 0. 0. 0. 1. 0. 0. 0. 0. 0. 0. 0. 0. 1. 1. 1. 0.
      0. 0. 0. 0. 0. 0. 0. 1. 1. 0. 0. 0. 0. 0. 0. 0. 1. 0. 0. 0. 0. 0.
      0. 0. 1. 0. 0. 0. 0. 0. 0. 0. 1. 0. 0. 0. 0. 0. 0. 0. 1. 0.
      5.71428597e-01 8.57142866e-01 1. 3.57142866e-01 1.42857149e-01
      7.14285821e-02 1.42857149e-01 2.14285716e-01 5.00000060e-01
      4.28571463e-01 7.85714328e-01 5.00000060e-01 1.42857149e-01
      7.14285821e-02 7.14285821e-02 7.14285821e-02 7.14285821e-02
      7.14285821e-02 7.14285821e-02 7.14285821e-02 0. 7.14285821e-02
      7.14285821e-02 0. 0. 0. 0. 0. 0. 0. 0. 0. 1.50000006e-01
      2.50000000e-01 3.49999994e-01 3.00000012e-01 3.00000012e-01
      3.00000012e-01 2.50000000e-01 3.00000012e-01 3.00000012e-01
      3.00000012e-01 3.00000012e-01 3.00000012e-01 2.50000000e-01
      2.50000000e-01 2.50000000e-01 2.50000000e-01 4.50000018e-01 1.
      9.00000036e-01 5.00000000e-01 0. 0. 0. 0.</_>
    <_>
      0. 1. 1. 1. 1. 1. 0. 0. 0. 1. 0. 0. 0. 0. 0. 0. 0. 0. 1. 1. 1. 0.
      0. 0. 0. 0. 0. 1. 0. 1. 1. 0. 0. 0. 0. 0. 0. 0. 1. 0. 0. 1. 0. 0.
      0. 0. 1. 0. 0. 1. 0. 0. 0. 0. 1. 0. 0. 0. 1. 1. 1. 1. 0. 0.
      5.00000000e-01 1. 1. 9.37500000e-01 0. 6.25000000e-02
      1.25000000e-01 1.25000000e-01 1.25000000e-01 6.25000000e-01
      6.87500000e-01 6.87500000e-01 2.50000000e-01 0. 6.25000000e-02
      6.25000000e-02 6.25000000e-02 6.25000000e-02 2.50000000e-01
      3.12500000e-01 3.12500000e-01 3.12500000e-01 2.50000000e-01
      3.12500000e-01 4.37500000e-01 6.87500000e-01 5.00000000e-01
      2.50000000e-01 0. 0. 2.14285731e-01 5.71428597e-01 8.57142925e-01
      9.28571463e-01 1. 7.85714328e-01 7.14285731e-01 7.85714328e-01
      7.14285731e-01 7.14285731e-01 6.42857194e-01 7.14285731e-01
      7.14285731e-01 7.14285731e-01 7.14285731e-01 7.85714328e-01
      7.14285731e-01 8.57142925e-01 7.14285731e-01 9.28571463e-01 1.
      8.57142925e-01 5.71428597e-01 2.14285731e-01 0. 0.</_>
    <_>
      0. 0. 0. 0. 1. 1. 0. 0. 0. 0. 0. 1. 1. 1. 0. 0. 0. 0. 1. 1. 1. 0.
      0. 0. 0. 0. 1. 1. 1. 0. 0. 0. 0. 0. 0. 1. 1. 0. 0. 0. 0. 0. 1. 0.
      1. 0. 0. 0. 0. 0. 1. 0. 1. 0. 0. 0. 0. 0. 1. 1. 0. 0. 0. 0. 0.
      3.33333313e-01 5.00000060e-01 5.00000060e-01 8.33333313e-01
      8.33333313e-01 1. 6.66666687e-01 3.33333313e-01 5.00000060e-01
      3.33333313e-01 3.33333313e-01 3.33333313e-01 1.66666687e-01
      1.66666687e-01 3.33333313e-01 3.33333313e-01 3.33333313e-01
      3.33333313e-01 3.33333313e-01 3.33333313e-01 3.33333313e-01
      3.33333313e-01 3.33333313e-01 3.33333313e-01 8.33333313e-01
      6.66666687e-01 3.33333313e-01 0. 0. 0. 0. 0. 0. 0. 2.60869563e-01
      5.21739125e-01 7.39130437e-01 7.82608688e-01 6.08695686e-01
      5.21739125e-01 5.65217376e-01 1. 9.56521749e-01 7.82608688e-01
      4.34782624e-01 3.47826093e-01 3.04347843e-01 1.73913047e-01 0. 0.
      0. 0. 0. 0. 0.</_>
    <_>
      0. 0. 0. 1. 1. 1. 0. 0. 0. 0. 1. 0. 1. 1. 0. 0. 0. 0. 0. 0. 0. 1.
      0. 0. 0. 0. 0. 0. 0. 1. 0. 0. 0. 0. 0. 0. 0. 1. 0. 0. 0. 0. 0. 0.
      0. 1. 0. 0. 0. 0. 0. 0. 0. 1. 0. 0. 0. 0. 0. 0. 0. 1. 0. 0.
      3.63636374e-01 6.36363685e-01 6.36363685e-01 3.63636374e-01
      3.63636374e-01 5.45454562e-01 1. 7.27272749e-01 9.09090936e-02
      9.09090936e-02 9.09090936e-02 9.09090936e-02 9.09090936e-02
      9.09090936e-02 9.09090936e-02 0. 0. 0. 0. 9.09090936e-02
      9.09090936e-02 9.09090936e-02 9.09090936e-02 9.09090936e-02
      9.09090936e-02 9.09090936e-02 9.09090936e-02 0. 0. 0. 0. 0. 0. 0.
      0. 1.42857149e-01 1.78571433e-01 2.14285731e-01 1.42857149e-01
      1.42857149e-01 1.42857149e-01 1.78571433e-01 2.14285731e-01
      1.42857149e-01 1.78571433e-01 5.00000000e-01 1. 8.57142925e-01
      3.21428597e-01 0. 0. 0. 0. 0. 0. 0.</_>
    <_>
      0. 0. 0. 0. 0. 0. 1. 0. 0. 0. 1. 1. 1. 1. 1. 0. 0. 1. 1. 1. 1. 1.
      0. 0. 0. 0. 0. 0. 0. 1. 1. 0. 0. 0. 0. 0. 0. 0. 0. 1. 1. 1. 0. 0.
      0. 0. 0. 1. 0. 1. 1. 1. 1. 1. 1. 0. 0. 0. 0. 0. 0. 0. 0. 0. 0. 0.
      4.21052635e-01 8.94736826e-01 8.94736826e-01 7.36842096e-01
      3.15789461e-01 5.26315808e-01 7.36842096e-01 7.36842096e-01
      5.78947365e-01 3.15789461e-01 2.63157904e-01 2.10526317e-01
      2.10526317e-01 2.10526317e-01 3.15789461e-01 3.68421048e-01
      4.21052635e-01 4.73684222e-01 5.26315808e-01 6.84210539e-01 1.
      9.47368443e-01 6.84210539e-01 3.15789461e-01 0. 0. 0.
      1.11111104e-01 1.11111104e-01 1.11111104e-01 1.11111104e-01
      3.33333343e-01 6.66666627e-01 7.77777791e-01 7.77777791e-01 1.
      7.77777791e-01 7.77777791e-01 6.66666627e-01 7.77777791e-01
      6.66666627e-01 7.77777791e-01 7.77777791e-01 8.88888836e-01 1.
      7.77777791e-01 8.88888836e-01 7.77777791e-01 6.66666627e-01
      8.88888836e-01 8.88888836e-01 7.77777791e-01 5.55555582e-01
      3.33333343e-01</_>
    <_>
      0. 0. 1. 1. 1. 0. 0. 0. 1. 1. 0. 0. 0. 0. 0. 0. 0. 1. 1. 0. 0. 0.
      0. 0. 0. 0. 1. 1. 1. 1. 1. 1. 0. 0. 1. 1. 1. 0. 0. 0. 0. 0. 1. 0.
      1. 0. 0. 0. 0. 0. 1. 1. 1. 0. 0. 0. 0. 0. 1. 1. 0. 0. 0. 0.
      1.25000000e-01 3.75000000e-01 4.37500000e-01 3.12500000e-01
      1.87500000e-01 1.25000000e-01 6.25000000e-02 1.25000000e-01
      1.87500000e-01 1.87500000e-01 9.37500000e-01 1. 9.37500000e-01
      3.75000000e-01 2.50000000e-01 2.50000000e-01 3.12500000e-01
      3.12500000e-01 1.87500000e-01 3.12500000e-01 3.12500000e-01
      3.12500000e-01 4.37500000e-01 3.12500000e-01 3.12500000e-01
      2.50000000e-01 1.25000000e-01 0. 0. 1.36363640e-01 2.27272734e-01
      3.18181813e-01 3.18181813e-01 4.09090936e-01 5.90909123e-01
      7.72727311e-01 9.09090936e-01 9.54545498e-01 1. 8.18181872e-01
      7.27272749e-01 8.18181872e-01 8.18181872e-01 8.18181872e-01
      5.90909123e-01 1.81818187e-01 1.36363640e-01 1.36363640e-01
      1.36363640e-01 1.36363640e-01 1.36363640e-01 1.36363640e-01
      1.81818187e-01 1.81818187e-01 9.09090936e-02 0.</_>
    <_>
      0. 1. 1. 1. 1. 0. 0. 0. 0. 1. 1. 0. 0. 0. 0. 0. 0. 0. 1. 0. 1. 0.
      0. 0. 0. 0. 1. 1. 1. 1. 1. 0. 0. 0. 0. 0. 0. 0. 1. 0. 0. 0. 0. 0.
      0. 0. 1. 0. 0. 0. 0. 0. 0. 0. 1. 0. 0. 0. 0. 1. 1. 1. 0. 0.
      1.53846160e-01 6.15384638e-01 8.46153855e-01 6.92307711e-01
      1.53846160e-01 7.69230872e-02 0. 7.69230872e-02 7.69230872e-02
      5.38461566e-01 9.23076987e-01 1. 5.38461566e-01 2.30769232e-01
      7.69230872e-02 0. 7.69230872e-02 7.69230872e-02 7.69230872e-02
      7.69230872e-02 0. 7.69230872e-02 7.69230872e-02 2.30769232e-01
      3.84615421e-01 7.69230843e-01 6.15384638e-01 3.84615421e-01 0. 0.
      0. 7.69230798e-02 2.30769247e-01 3.07692319e-01 5.38461566e-01
      9.23076987e-01 7.69230783e-01 6.15384638e-01 6.92307711e-01
      6.92307711e-01 6.15384638e-01 7.69230783e-01 6.92307711e-01
      6.92307711e-01 6.92307711e-01 4.61538494e-01 4.61538494e-01
      5.38461566e-01 5.38461566e-01 6.92307711e-01 1. 8.46153855e-01
      3.07692319e-01 0. 0. 0.</_>
    <_>
      0. 0. 0. 1. 1. 0. 0. 0. 0. 1. 1. 1. 1. 0. 0. 0. 0. 0. 0. 1. 1. 0.
      0. 0. 0. 0. 0. 1. 0. 0. 0. 0. 0. 0. 1. 0. 1. 1. 0. 0. 0. 1. 1. 1.
      0. 0. 1. 0. 0. 1. 0. 0. 0. 0. 0. 1. 1. 0. 0. 0. 0. 0. 0. 0.
      1.42857149e-01 2.85714269e-01 3.57142866e-01 5.00000000e-01
      5.71428597e-01 5.00000000e-01 4.28571463e-01 2.85714269e-01
      7.14285821e-02 7.14285821e-02 1.49011612e-08 1.49011612e-08
      1.49011612e-08 1.49011612e-08 7.14285821e-02 3.57142866e-01
      6.42857194e-01 1. 8.57142925e-01 5.71428597e-01 5.71428597e-01
      3.57142866e-01 2.85714269e-01 2.14285746e-01 7.14285821e-02
      1.49011612e-08 1.49011612e-08 1.49011612e-08 1.53846160e-01
      3.07692319e-01 5.38461566e-01 4.61538494e-01 6.15384638e-01
      6.15384638e-01 6.92307711e-01 7.69230783e-01 8.46153855e-01
      8.46153855e-01 1. 1. 9.23076987e-01 8.46153855e-01 1.
      9.23076987e-01 7.69230783e-01 6.15384638e-01 2.30769247e-01
      3.07692319e-01 2.30769247e-01 3.84615391e-01 3.07692319e-01
      3.07692319e-01 2.30769247e-01 2.30769247e-01 1.53846160e-01 0.</_>
    <_>
      0. 0. 0. 1. 1. 0. 0. 0. 0. 0. 1. 1. 1. 1. 0. 0. 0. 0. 1. 0. 0. 1.
      0. 0. 0. 1. 1. 0. 0. 1. 1. 0. 0. 1. 0. 0. 0. 1. 0. 0. 0. 1. 0. 0.
      0. 1. 0. 0. 0. 1. 1. 1. 1. 1. 0. 0. 0. 0. 1. 1. 1. 0. 0. 0.
      7.69230723e-02 1.53846174e-01 3.84615391e-01 5.38461566e-01
      6.15384698e-01 6.92307711e-01 5.38461566e-01 3.84615391e-01
      3.84615391e-01 3.07692319e-01 1.53846174e-01 3.84615391e-01
      4.61538464e-01 3.07692319e-01 1.53846174e-01 0. 1.53846174e-01
      1.53846174e-01 2.30769247e-01 2.30769247e-01 3.07692319e-01
      6.15384698e-01 1.00000012e+00 9.23076987e-01 8.46153855e-01
      6.92307711e-01 5.38461566e-01 1.53846174e-01 0. 0. 0. 0.
      3.80952388e-01 6.66666687e-01 8.57142866e-01 8.09523821e-01
      7.61904776e-01 7.14285731e-01 6.19047642e-01 6.66666687e-01
      6.19047642e-01 5.71428597e-01 5.71428597e-01 5.71428597e-01
      5.71428597e-01 6.19047642e-01 8.09523821e-01 1. 9.52380955e-01
      4.76190478e-01 1.42857149e-01 0. 0. 0. 0. 0.</_>
    <_>
      0. 0. 1. 1. 1. 1. 1. 0. 0. 1. 1. 0. 0. 1. 0. 0. 0. 0. 0. 0. 0. 1.
      0. 0. 0. 1. 1. 1. 1. 1. 1. 0. 0. 0. 0. 1. 1. 1. 0. 0. 0. 0. 0. 0.
      1. 0. 0. 0. 0. 0. 0. 1. 1. 0. 0. 0. 0. 0. 0. 1. 0. 0. 0. 0.
      2.10526317e-01 4.73684192e-01 7.36842096e-01 7.36842096e-01
      4.21052635e-01 3.15789491e-01 1.57894731e-01 0. 5.26315868e-02 0.
      5.26315868e-02 5.26315868e-02 9.47368383e-01 1. 8.94736886e-01
      1.05263174e-01 0. 5.26315868e-02 5.26315868e-02 0. 5.26315868e-02
      5.26315868e-02 0. 5.26315868e-02 0. 5.26315868e-02 0. 0. 0. 0.
      1.11111112e-01 2.22222224e-01 2.77777791e-01 3.33333343e-01
      3.88888896e-01 3.33333343e-01 3.33333343e-01 3.33333343e-01
      3.33333343e-01 3.88888896e-01 6.11111104e-01 7.77777791e-01 1.
      8.88888896e-01 8.88888896e-01 7.77777791e-01 7.77777791e-01
      7.77777791e-01 6.66666687e-01 5.55555582e-01 2.77777791e-01
      1.66666672e-01 1.66666672e-01 1.11111112e-01 0. 0.</_>
    <_>
      0. 0. 0. 0. 1. 1. 1. 0. 0. 0. 1. 1. 1. 0. 0. 0. 0. 0. 1. 0. 0. 0.
      0. 0. 0. 1. 1. 1. 1. 1. 0. 0. 0. 1. 1. 1. 1. 1. 0. 0. 0. 0. 0. 0.
      1. 1. 0. 0. 0. 0. 1. 1. 1. 0. 0. 0. 0. 0. 1. 1. 0. 0. 0. 0. 0.
      5.33333421e-01 6.00000024e-01 7.33333349e-01 2.66666681e-01
      1.33333355e-01 1.33333355e-01 1.33333355e-01 1.33333355e-01
      1.33333355e-01 1.33333355e-01 4.00000006e-01 8.66666794e-01
      9.33333397e-01 1.00000012e+00 1.00000012e+00 6.00000024e-01
      1.33333355e-01 6.66666627e-02 2.00000018e-01 2.00000018e-01
      3.33333343e-01 4.66666669e-01 6.00000024e-01 4.66666669e-01
      4.00000006e-01 2.00000018e-01 0. 0. 0. 0. 2.77777791e-01
      3.33333343e-01 5.55555582e-01 7.77777791e-01 8.33333313e-01
      8.88888896e-01 9.44444478e-01 1. 9.44444478e-01 1. 1.
      9.44444478e-01 8.88888896e-01 1. 8.88888896e-01 7.77777791e-01
      7.22222209e-01 5.55555582e-01 3.88888896e-01 1.66666672e-01
      1.66666672e-01 1.66666672e-01 0. 0. 0.</_>
    <_>
      0. 0. 1. 1. 1. 0. 0. 0. 0. 0. 1. 0. 0. 1. 0. 0. 0. 1. 1. 0. 0. 1.
      1. 0. 0. 1. 1. 0. 1. 1. 1. 0. 0. 0. 1. 1. 1. 1. 0. 0. 0. 0. 1. 1.
      1. 1. 0. 0. 0. 0. 0. 0. 1. 1. 0. 0. 0. 0. 0. 0. 0. 1. 0. 0.
      1.81818187e-01 4.54545468e-01 6.36363626e-01 5.45454621e-01
      4.54545468e-01 3.63636345e-01 1.81818187e-01 3.63636345e-01
      4.54545468e-01 4.54545468e-01 6.36363626e-01 7.27272749e-01
      5.45454621e-01 5.45454621e-01 5.45454621e-01 5.45454621e-01 1. 1.
      9.09090996e-01 3.63636345e-01 0. 9.09090936e-02 9.09090936e-02
      9.09090936e-02 0. 0. 0. 0. 0. 0. 0. 0. 0. 3.33333343e-01
      5.00000000e-01 6.25000000e-01 5.00000000e-01 4.16666687e-01
      3.33333343e-01 2.91666687e-01 2.91666687e-01 2.91666687e-01
      2.50000000e-01 3.33333343e-01 5.83333373e-01 8.75000000e-01
      9.58333373e-01 1. 5.83333373e-01 2.91666687e-01 1.66666672e-01 0.
      0. 0. 0. 0.</_>
    <_>
      0. 0. 0. 1. 1. 0. 0. 0. 0. 0. 0. 1. 1. 1. 0. 0. 0. 0. 1. 1. 1. 1.
      0. 0. 0. 1. 1. 0. 0. 1. 0. 0. 0. 1. 1. 0. 0. 1. 1. 0. 0. 0. 0. 0.
      0. 1. 0. 0. 0. 0. 0. 0. 1. 1. 0. 0. 0. 0. 0. 0. 1. 0. 0. 0.
      3.33333343e-01 4.44444478e-01 6.66666687e-01 6.66666687e-01
      8.88888896e-01 1. 1. 1. 8.88888896e-01 7.77777791e-01
      5.55555582e-01 8.88888896e-01 8.88888896e-01 8.88888896e-01 1. 1.
      6.66666687e-01 4.44444478e-01 4.44444478e-01 3.33333343e-01
      3.33333343e-01 4.44444478e-01 3.33333343e-01 2.22222239e-01
      4.44444478e-01 3.33333343e-01 2.22222239e-01 0. 0. 0. 0.
      5.26315793e-02 1.57894731e-01 2.10526317e-01 2.63157904e-01
      4.21052635e-01 4.73684222e-01 3.68421048e-01 3.15789461e-01
      4.21052635e-01 3.68421048e-01 5.26315808e-01 5.26315808e-01
      7.36842096e-01 8.42105269e-01 1. 8.94736826e-01 8.42105269e-01
      5.26315808e-01 4.21052635e-01 1.57894731e-01 5.26315793e-02 0. 0.
      0. 0.</_>
    <_>
      0. 0. 0. 1. 1. 0. 0. 0. 0. 0. 1. 0. 0. 0. 1. 0. 0. 1. 1. 0. 0. 1.
      0. 0. 0. 1. 1. 1. 1. 1. 0. 0. 0. 0. 0. 0. 0. 1. 0. 0. 0. 0. 0. 0.
      0. 1. 0. 0. 0. 0. 0. 0. 0. 1. 0. 0. 0. 0. 0. 0. 0. 1. 0. 0.
      1.81818187e-01 3.63636345e-01 3.63636345e-01 9.09090936e-02
      1.81818187e-01 2.72727281e-01 2.72727281e-01 2.72727281e-01
      2.72727281e-01 2.72727281e-01 4.54545468e-01 8.18181872e-01 1.
      9.09090996e-01 6.36363626e-01 0. 0. 0. 0. 0. 0. 0. 0. 0. 0.
      9.09090936e-02 0. 0. 0. 0. 0. 0. 5.00000007e-02 2.50000000e-01
      3.49999994e-01 5.00000000e-01 4.00000006e-01 3.49999994e-01
      3.49999994e-01 3.00000012e-01 3.00000012e-01 3.00000012e-01
      3.00000012e-01 3.00000012e-01 3.00000012e-01 1. 9.00000036e-01 1.
      3.49999994e-01 2.00000003e-01 2.00000003e-01 5.00000007e-02 0. 0.
      0. 0.</_>
    <_>
      0. 0. 0. 0. 1. 1. 1. 0. 0. 0. 0. 1. 1. 0. 1. 0. 0. 0. 0. 1. 0. 1.
      1. 0. 0. 0. 0. 1. 1. 1. 1. 0. 0. 0. 0. 0. 0. 1. 0. 0. 0. 0. 0. 0.
      0. 1. 0. 0. 0. 1. 0. 0. 1. 1. 0. 0. 0. 0. 1. 1. 1. 0. 0. 0.
      9.99999940e-02 3.99999976e-01 6.00000024e-01 6.00000024e-01
      5.00000000e-01 5.00000000e-01 5.00000000e-01 5.00000000e-01
      6.00000024e-01 6.00000024e-01 6.99999988e-01 1. 8.00000012e-01
